{"learner":{"attributes":{"scikit_learn":"{\"_estimator_type\": \"regressor\"}"},"feature_names":["temperature_2m_mean","precipitation_sum","wind_speed_10m_max","wind_direction_10m_dominant"],"feature_types":["float","float","float","float"],"gradient_booster":{"model":{"gbtree_model_param":{"num_parallel_tree":"1","num_trees":"100"},"iteration_indptr":[0,1,2,3,4,5,6,7,8,9,10,11,12,13,14,15,16,17,18,19,20,21,22,23,24,25,26,27,28,29,30,31,32,33,34,35,36,37,38,39,40,41,42,43,44,45,46,47,48,49,50,51,52,53,54,55,56,57,58,59,60,61,62,63,64,65,66,67,68,69,70,71,72,73,74,75,76,77,78,79,80,81,82,83,84,85,86,87,88,89,90,91,92,93,94,95,96,97,98,99,100],"tree_info":[0,0,0,0,0,0,0,0,0,0,0,0,0,0,0,0,0,0,0,0,0,0,0,0,0,0,0,0,0,0,0,0,0,0,0,0,0,0,0,0,0,0,0,0,0,0,0,0,0,0,0,0,0,0,0,0,0,0,0,0,0,0,0,0,0,0,0,0,0,0,0,0,0,0,0,0,0,0,0,0,0,0,0,0,0,0,0,0,0,0,0,0,0,0,0,0,0,0,0,0],"trees":[{"base_weights":[3.4006786E-7,8.386181E0,-3.2883165E0,1.6812304E1,1.9719698E0,-7.1262246E-1,-5.538216E0,2.049688E1,5.174303E0,1.1054491E1,-1.148764E0,3.8495395E0,-3.9453626E0,-6.015755E0,-3.669478E0,-1.9265836E-1,2.2553408E1,9.260326E0,-4.2635317E0,-2.0760598E0,1.779612E1,1.2407919E0,-3.4627068E0,9.657778E0,1.2839046E-1,-2.8184452E0,-6.1471033E0,-4.5996723E0,-6.5043974E0,-3.8552346E0,3.7493734E0,1.0187999E1,-4.5018773E0,3.0425842E1,1.5911991E1,8.2465E0,7.484095E0,-1.9680632E0,1.0404147E0,5.0235075E-1,-6.251752E0,2.5646475E1,1.0992409E1,3.3925924E0,-4.6637955E0,-3.918092E0,6.8839974E0,1.53967E1,4.28495E0,-5.5531273E0,9.691458E-1,-4.3000236E-1,-3.5591273E0,-2.9665813E0,-6.684557E0,-5.848845E0,-3.8078594E0,-6.549266E0,1.7433748E0,-4.4367423E0,-2.235515E0,2.1684997E0,-1.0031254E0,8.568745E-1,3.3920622E0,-1.6970462E0,1.2303748E0,3.9959996E0,1.0629908E1,8.243413E0,3.4094145E0,-1.2401253E0,2.3802423E0,1.9173748E0,-3.9240065E-1,2.4043121E0,-5.0394714E-1,-2.3543444E0,2.6499558E-2,8.823395E0,4.0556195E-1,3.6817195E0,7.331204E-2,1.6914369E0,1.6614513E-1,-1.5506257E0,-6.468809E-2,-1.2395849E0,1.4404995E0,5.7003746E0,-2.686881E-1,2.5022392E0,6.7190213E0,2.3346202E0,-3.578197E-2,-9.661371E-1,-2.2691257E0,8.808949E-1,-9.091341E-1,-1.6376747E0,8.6609936E-1,-1.7536913E0,-6.924605E-1,-1.3330597E0,1.9174997E0,-2.0560462E0,3.3549947E-1,2.2049962E-1,-1.8348614E0,-7.0253366E-1,-1.4307091E0,-2.0057216E0,-1.1225722E0,-1.4631316E-1,-1.4726217E0,-8.509293E-1,7.253994E-1],"categories":[],"categories_nodes":[],"categories_segments":[],"categories_sizes":[],"default_left":[0,0,0,0,0,0,0,0,0,0,0,0,0,0,0,0,0,0,0,0,0,0,0,0,0,0,0,0,0,0,0,0,0,0,0,0,0,0,0,0,0,0,0,0,0,0,0,0,0,0,0,0,0,0,0,0,0,0,0,0,0,0,0,0,0,0,0,0,0,0,0,0,0,0,0,0,0,0,0,0,0,0,0,0,0,0,0,0,0,0,0,0,0,0,0,0,0,0,0,0,0,0,0,0,0,0,0,0,0,0,0,0,0,0,0,0,0],"id":0,"left_children":[1,3,5,7,9,11,13,15,17,19,21,23,25,27,29,31,33,35,37,39,41,43,45,47,49,51,53,55,57,59,61,63,65,67,69,-1,71,-1,73,75,77,79,81,83,85,87,89,91,93,95,97,99,101,103,105,107,109,111,-1,113,115,-1,-1,-1,-1,-1,-1,-1,-1,-1,-1,-1,-1,-1,-1,-1,-1,-1,-1,-1,-1,-1,-1,-1,-1,-1,-1,-1,-1,-1,-1,-1,-1,-1,-1,-1,-1,-1,-1,-1,-1,-1,-1,-1,-1,-1,-1,-1,-1,-1,-1,-1,-1,-1,-1,-1,-1],"loss_changes":[4.9637555E4,2.7368637E4,7.4890586E3,9.284906E3,8.204152E3,8.923151E3,5.936758E2,7.067414E3,2.1218955E3,6.5875225E3,1.1986245E3,5.423703E3,8.610127E2,3.492754E2,2.1152307E2,7.6158545E2,7.4107734E3,1.0246069E3,2.1391016E2,2.8307346E2,2.335248E3,1.3753102E3,5.452628E2,2.9557812E3,7.410037E2,4.159718E2,1.8358594E2,1.201604E2,2.6185547E2,1.21944824E2,1.22876495E2,8.721313E0,1.4243352E2,5.352375E3,4.105617E3,0E0,2.2102588E2,0E0,8.37557E1,2.9213596E2,1.0188492E2,1.9724766E3,3.8220752E2,5.0046735E2,6.4023315E1,2.1750757E2,4.8835632E2,2.1345977E3,8.018366E2,6.944379E1,1.0710623E3,9.665714E2,5.0135254E2,2.9101324E2,1.4079736E2,9.954907E1,1.1706494E2,1.2976562E2,0E0,1.8772644E2,1.15916885E2,0E0,0E0,0E0,0E0,0E0,0E0,0E0,0E0,0E0,0E0,0E0,0E0,0E0,0E0,0E0,0E0,0E0,0E0,0E0,0E0,0E0,0E0,0E0,0E0,0E0,0E0,0E0,0E0,0E0,0E0,0E0,0E0,0E0,0E0,0E0,0E0,0E0,0E0,0E0,0E0,0E0,0E0,0E0,0E0,0E0,0E0,0E0,0E0,0E0,0E0,0E0,0E0,0E0,0E0,0E0,0E0],"parents":[2147483647,0,0,1,1,2,2,3,3,4,4,5,5,6,6,7,7,8,8,9,9,10,10,11,11,12,12,13,13,14,14,15,15,16,16,17,17,18,18,19,19,20,20,21,21,22,22,23,23,24,24,25,25,26,26,27,27,28,28,29,29,30,30,31,31,32,32,33,33,34,34,36,36,38,38,39,39,40,40,41,41,42,42,43,43,44,44,45,45,46,46,47,47,48,48,49,49,50,50,51,51,52,52,53,53,54,54,55,55,56,56,57,57,59,59,60,60],"right_children":[2,4,6,8,10,12,14,16,18,20,22,24,26,28,30,32,34,36,38,40,42,44,46,48,50,52,54,56,58,60,62,64,66,68,70,-1,72,-1,74,76,78,80,82,84,86,88,90,92,94,96,98,100,102,104,106,108,110,112,-1,114,116,-1,-1,-1,-1,-1,-1,-1,-1,-1,-1,-1,-1,-1,-1,-1,-1,-1,-1,-1,-1,-1,-1,-1,-1,-1,-1,-1,-1,-1,-1,-1,-1,-1,-1,-1,-1,-1,-1,-1,-1,-1,-1,-1,-1,-1,-1,-1,-1,-1,-1,-1,-1,-1,-1,-1,-1],"split_conditions":[5.9929166E0,1.781909E1,1.4284583E1,2.5313916E2,1.6303581E2,1.8806337E1,2.183667E1,3.322203E1,3.096459E2,6.5016884E1,2.4442913E1,9.145E0,2.7381308E1,1.5408671E1,1.0999999E1,-6.9458336E-1,1.4494957E2,8.759178E0,1.1000001E0,2.5364037E1,5.3875E-1,2.776977E2,5.915833E0,1.7825679E2,5.0590286E1,1.7825679E2,5E-1,1.1988594E1,4.89E1,8E-1,2.2530416E1,-6.88625E0,4.2970834E0,5.967863E1,1.191812E1,8.2465E0,8.942214E0,-1.9680632E0,-1.8695832E0,2.6039007E1,2.7999997E0,1.9000002E0,2.6496098E1,3.8470824E0,2.3683512E1,9.3E0,5E-1,1.17005424E2,2.5422568E2,1.2371645E1,2.5096881E2,7.852983E1,2.3147118E2,4E-1,2.4E1,1.4524167E1,1.3556282E1,1.0999999E1,1.7433748E0,1.210157E1,3.0752042E2,2.1684997E0,-1.0031254E0,8.568745E-1,3.3920622E0,-1.6970462E0,1.2303748E0,3.9959996E0,1.0629908E1,8.243413E0,3.4094145E0,-1.2401253E0,2.3802423E0,1.9173748E0,-3.9240065E-1,2.4043121E0,-5.0394714E-1,-2.3543444E0,2.6499558E-2,8.823395E0,4.0556195E-1,3.6817195E0,7.331204E-2,1.6914369E0,1.6614513E-1,-1.5506257E0,-6.468809E-2,-1.2395849E0,1.4404995E0,5.7003746E0,-2.686881E-1,2.5022392E0,6.7190213E0,2.3346202E0,-3.578197E-2,-9.661371E-1,-2.2691257E0,8.808949E-1,-9.091341E-1,-1.6376747E0,8.6609936E-1,-1.7536913E0,-6.924605E-1,-1.3330597E0,1.9174997E0,-2.0560462E0,3.3549947E-1,2.2049962E-1,-1.8348614E0,-7.0253366E-1,-1.4307091E0,-2.0057216E0,-1.1225722E0,-1.4631316E-1,-1.4726217E0,-8.509293E-1,7.253994E-1],"split_indices":[0,2,0,3,3,2,0,3,3,3,2,0,2,2,1,0,3,2,1,2,0,3,0,3,3,3,1,2,1,1,0,0,0,3,2,0,2,0,0,3,1,1,2,0,2,1,1,3,3,2,3,3,3,1,1,0,2,1,0,2,3,0,0,0,0,0,0,0,0,0,0,0,0,0,0,0,0,0,0,0,0,0,0,0,0,0,0,0,0,0,0,0,0,0,0,0,0,0,0,0,0,0,0,0,0,0,0,0,0,0,0,0,0,0,0,0,0],"split_type":[0,0,0,0,0,0,0,0,0,0,0,0,0,0,0,0,0,0,0,0,0,0,0,0,0,0,0,0,0,0,0,0,0,0,0,0,0,0,0,0,0,0,0,0,0,0,0,0,0,0,0,0,0,0,0,0,0,0,0,0,0,0,0,0,0,0,0,0,0,0,0,0,0,0,0,0,0,0,0,0,0,0,0,0,0,0,0,0,0,0,0,0,0,0,0,0,0,0,0,0,0,0,0,0,0,0,0,0,0,0,0,0,0,0,0,0,0],"sum_hessian":[1.798E3,5.06E2,1.292E3,2.18E2,2.88E2,6.03E2,6.89E2,1.65E2,5.3E1,7.3E1,2.15E2,2.5E2,3.53E2,5.47E2,1.42E2,1.5E1,1.5E2,3.7E1,1.6E1,2.5E1,4.8E1,1.06E2,1.09E2,9.7E1,1.53E2,2.35E2,1.18E2,1.43E2,4.04E2,1.39E2,3E0,4E0,1.1E1,6.7E1,8.3E1,2E0,3.5E1,1.1E1,5E0,1.6E1,9E0,2.1E1,2.7E1,7.8E1,2.8E1,1.05E2,4E0,4.6E1,5.1E1,1.9E1,1.34E2,5.6E1,1.79E2,1.8E1,1E2,5.3E1,9E1,4.03E2,1E0,1.01E2,3.8E1,2E0,1E0,1E0,3E0,1E1,1E0,1.6E1,5.1E1,2.2E1,6.1E1,1E0,3.4E1,1E0,4E0,3E0,1.3E1,7E0,2E0,1.8E1,3E0,2.4E1,3E0,4.3E1,3.5E1,2.5E1,3E0,1.03E2,2E0,1E0,3E0,2.4E1,2.2E1,2.8E1,2.3E1,1E1,9E0,9E1,4.4E1,2.2E1,3.4E1,6.2E1,1.17E2,1.6E1,2E0,9.8E1,2E0,2E0,5.1E1,3.7E1,5.3E1,3.83E2,2E1,1.1E1,9E1,3.4E1,4E0],"tree_param":{"num_deleted":"0","num_feature":"4","num_nodes":"117","size_leaf_vector":"1"}},{"base_weights":[3.0921355E-2,4.7116923E0,-2.9687257E0,1.0301415E1,-1.769804E-1,-1.4118189E0,-3.885029E0,1.6056139E1,6.141527E0,5.583224E0,-1.9564289E0,8.511712E-1,-3.0813868E0,-3.1374073E0,-4.5857735E0,2.4474976E0,2.0350733E1,7.5552306E0,-2.4085658E0,-2.1169515E0,1.0158629E1,-1.3420267E-1,-3.065303E0,-4.9541245E0,1.4704045E0,-1.8089659E0,-4.3492217E0,-4.369487E0,-2.6498957E0,-4.6267505E0,1.4818686E0,1.2929553E1,-7.489448E-1,6.8210497E0,2.2208588E1,1.263581E1,5.3628917E0,-3.6109748E0,5.708632E0,2.5748963E0,-3.053916E0,2.261114E1,5.868077E0,-4.5727473E-1,8.541526E0,-1.0021541E0,-3.5958266E0,-2.6340275E0,-5.980175E0,1.0154111E1,4.2045084E-1,-6.2578626E0,-1.2978945E0,9.2541766E-1,-4.850827E0,-2.6856346E0,-5.278909E0,-3.2953024E0,-1.5477527E0,-3.4474094E0,-5.0353327E0,6.6697484E-1,4.242426E0,-9.754067E-1,7.9500455E-1,2.6070485E0,-2.6216116E0,5.6819744E0,9.660679E0,5.422637E0,2.0072193E0,-8.123023E-2,2.0232663E0,4.966413E-1,-1.608358E0,4.0462476E-1,2.818242E0,-1.2126799E0,3.1601152E-1,8.608094E0,2.9156566E0,3.599419E0,7.48514E-1,-6.444938E-1,3.363421E-1,3.1651146E0,3.7724364E-1,-7.4693006E-1,2.2040226E0,3.785204E-1,-1.1571139E0,-1.2962732E0,-3.2852775E-1,-2.098172E0,-2.8367653E-1,1.370323E0,8.150362E0,1.3834926E0,-1.676129E-1,-2.1658409E0,-2.8996563E-1,-1.445849E-1,-1.1183637E0,-5.4177344E-1,2.6432798E0,-2.3059763E-1,-1.652413E0,-1.0356656E0,3.5067332E0,-1.715705E0,-9.125686E-1,-3.5742775E-1,-1.133319E0,-2.7984154E-1,-1.3231362E0,-1.3031921E0,-6.5474576E-1,-1.6534734E0,-1.2767686E0],"categories":[],"categories_nodes":[],"categories_segments":[],"categories_sizes":[],"default_left":[0,0,0,0,0,0,0,0,0,0,0,0,0,0,0,0,0,0,0,0,0,0,0,0,0,0,0,0,0,0,0,0,0,0,0,0,0,0,0,0,0,0,0,0,0,0,0,0,0,0,0,0,0,0,0,0,0,0,0,0,0,0,0,0,0,0,0,0,0,0,0,0,0,0,0,0,0,0,0,0,0,0,0,0,0,0,0,0,0,0,0,0,0,0,0,0,0,0,0,0,0,0,0,0,0,0,0,0,0,0,0,0,0,0,0,0,0,0,0],"id":1,"left_children":[1,3,5,7,9,11,13,15,17,19,21,23,25,27,29,31,33,35,37,39,41,43,45,47,49,51,53,55,57,59,-1,61,63,65,67,69,71,73,75,-1,77,79,81,83,85,87,89,91,93,95,97,99,101,103,105,107,109,111,113,115,117,-1,-1,-1,-1,-1,-1,-1,-1,-1,-1,-1,-1,-1,-1,-1,-1,-1,-1,-1,-1,-1,-1,-1,-1,-1,-1,-1,-1,-1,-1,-1,-1,-1,-1,-1,-1,-1,-1,-1,-1,-1,-1,-1,-1,-1,-1,-1,-1,-1,-1,-1,-1,-1,-1,-1,-1,-1,-1],"loss_changes":[2.5273137E4,1.921223E4,1.5594951E3,7.7533867E3,3.8649182E3,1.5441349E3,3.4709766E2,7.956961E3,2.3389585E3,3.1571025E3,5.81527E2,6.3278534E2,3.71239E2,1.9084131E2,1.6102734E2,1.1488632E3,2.4626797E3,1.7700625E3,2.938991E2,3.6707748E2,2.859293E3,3.1222324E2,1.9232068E2,2.4717163E1,1.4362941E3,2.624488E2,3.140464E2,1.2976807E2,1.6846436E2,1.5273682E2,0E0,7.235693E1,2.382672E2,4.831018E2,2.362707E3,1.4636802E3,9.12313E2,2.39311E2,5.1603195E1,0E0,1.3416E2,8.1897363E2,8.591593E2,2.880086E2,4.526352E1,4.9024884E2,1.8504932E2,1.34402275E1,4.9527557E1,1.4916714E3,5.853231E2,5.4079926E1,2.1233853E2,2.5282904E2,2.82833E2,4.26034E2,4.1674683E1,1.5078906E2,1.5784373E2,9.712341E1,7.305615E1,0E0,0E0,0E0,0E0,0E0,0E0,0E0,0E0,0E0,0E0,0E0,0E0,0E0,0E0,0E0,0E0,0E0,0E0,0E0,0E0,0E0,0E0,0E0,0E0,0E0,0E0,0E0,0E0,0E0,0E0,0E0,0E0,0E0,0E0,0E0,0E0,0E0,0E0,0E0,0E0,0E0,0E0,0E0,0E0,0E0,0E0,0E0,0E0,0E0,0E0,0E0,0E0,0E0,0E0,0E0,0E0,0E0,0E0],"parents":[2147483647,0,0,1,1,2,2,3,3,4,4,5,5,6,6,7,7,8,8,9,9,10,10,11,11,12,12,13,13,14,14,15,15,16,16,17,17,18,18,19,19,20,20,21,21,22,22,23,23,24,24,25,25,26,26,27,27,28,28,29,29,31,31,32,32,33,33,34,34,35,35,36,36,37,37,38,38,40,40,41,41,42,42,43,43,44,44,45,45,46,46,47,47,48,48,49,49,50,50,51,51,52,52,53,53,54,54,55,55,56,56,57,57,58,58,59,59,60,60],"right_children":[2,4,6,8,10,12,14,16,18,20,22,24,26,28,30,32,34,36,38,40,42,44,46,48,50,52,54,56,58,60,-1,62,64,66,68,70,72,74,76,-1,78,80,82,84,86,88,90,92,94,96,98,100,102,104,106,108,110,112,114,116,118,-1,-1,-1,-1,-1,-1,-1,-1,-1,-1,-1,-1,-1,-1,-1,-1,-1,-1,-1,-1,-1,-1,-1,-1,-1,-1,-1,-1,-1,-1,-1,-1,-1,-1,-1,-1,-1,-1,-1,-1,-1,-1,-1,-1,-1,-1,-1,-1,-1,-1,-1,-1,-1,-1,-1,-1,-1,-1],"split_conditions":[8.190834E0,1.9011953E1,1.4284583E1,1.5850267E2,1.8034169E2,1.8668005E1,2.1753694E2,4.45767E1,3.0752042E2,8.039149E1,2.4442913E1,1.0233123E1,9.000001E-1,1.782625E1,4.89E1,-5.2916657E-2,-1.8695832E0,1.3339445E1,1.8089775E1,1.9862083E1,4.679167E-1,7.967917E0,5E-1,4.106631E1,1.1525623E1,7.2864815E1,1.7825679E2,1.6700275E1,2E-1,1.642247E1,1.4818686E0,9.659814E0,2E-1,8.000001E-1,7E-1,2.4679167E0,1.8821266E2,-1.1758333E0,3.3220832E0,2.5748963E0,4.6000004E0,9E-1,1.0918827E2,2.142227E1,8.161667E0,3E-1,2.0819896E2,2.3885681E1,9.83268E0,2.0690314E2,9.26375E0,7E-1,2.6674927E2,1.6125122E2,8.872085E0,1.6575644E1,2.0017355E2,1.9247084E1,1.9588853E2,1.4332341E1,1E0,6.6697484E-1,4.242426E0,-9.754067E-1,7.9500455E-1,2.6070485E0,-2.6216116E0,5.6819744E0,9.660679E0,5.422637E0,2.0072193E0,-8.123023E-2,2.0232663E0,4.966413E-1,-1.608358E0,4.0462476E-1,2.818242E0,-1.2126799E0,3.1601152E-1,8.608094E0,2.9156566E0,3.599419E0,7.48514E-1,-6.444938E-1,3.363421E-1,3.1651146E0,3.7724364E-1,-7.4693006E-1,2.2040226E0,3.785204E-1,-1.1571139E0,-1.2962732E0,-3.2852775E-1,-2.098172E0,-2.8367653E-1,1.370323E0,8.150362E0,1.3834926E0,-1.676129E-1,-2.1658409E0,-2.8996563E-1,-1.445849E-1,-1.1183637E0,-5.4177344E-1,2.6432798E0,-2.3059763E-1,-1.652413E0,-1.0356656E0,3.5067332E0,-1.715705E0,-9.125686E-1,-3.5742775E-1,-1.133319E0,-2.7984154E-1,-1.3231362E0,-1.3031921E0,-6.5474576E-1,-1.6534734E0,-1.2767686E0],"split_indices":[0,2,0,3,3,2,3,3,3,3,2,2,1,0,1,0,0,2,2,2,0,0,1,3,2,3,3,2,1,2,0,2,1,1,1,0,3,0,0,0,1,1,3,2,0,1,3,3,2,3,0,1,3,3,0,2,3,0,3,2,1,0,0,0,0,0,0,0,0,0,0,0,0,0,0,0,0,0,0,0,0,0,0,0,0,0,0,0,0,0,0,0,0,0,0,0,0,0,0,0,0,0,0,0,0,0,0,0,0,0,0,0,0,0,0,0,0,0,0],"split_type":[0,0,0,0,0,0,0,0,0,0,0,0,0,0,0,0,0,0,0,0,0,0,0,0,0,0,0,0,0,0,0,0,0,0,0,0,0,0,0,0,0,0,0,0,0,0,0,0,0,0,0,0,0,0,0,0,0,0,0,0,0,0,0,0,0,0,0,0,0,0,0,0,0,0,0,0,0,0,0,0,0,0,0,0,0,0,0,0,0,0,0,0,0,0,0,0,0,0,0,0,0,0,0,0,0,0,0,0,0,0,0,0,0,0,0,0,0,0,0],"sum_hessian":[1.798E3,7.02E2,1.096E3,3.27E2,3.75E2,4.07E2,6.89E2,1.36E2,1.91E2,8.8E1,2.87E2,1.73E2,2.34E2,3.36E2,3.53E2,3.3E1,1.03E2,1.64E2,2.7E1,3.3E1,5.5E1,1.09E2,1.78E2,1.6E1,1.57E2,1.18E2,1.16E2,9.3E1,2.43E2,3.52E2,1E0,7E0,2.6E1,1.3E1,9E1,4.8E1,1.16E2,2.4E1,3E0,2E0,3.1E1,1.3E1,4.2E1,1.06E2,3E0,3.7E1,1.41E2,6E0,1E1,1.6E1,1.41E2,1.1E1,1.07E2,1E1,1.06E2,3.4E1,5.9E1,1.52E2,9.1E1,9.3E1,2.59E2,1E0,6E0,1.5E1,1.1E1,1.2E1,1E0,7E1,2E1,2.4E1,2.4E1,2.3E1,9.3E1,6E0,1.8E1,2E0,1E0,2.5E1,6E0,8E0,5E0,1.4E1,2.8E1,5.1E1,5.5E1,2E0,1E0,3.2E1,5E0,7E0,1.34E2,2E0,4E0,8E0,2E0,1.3E1,3E0,2.6E1,1.15E2,9E0,2E0,8.1E1,2.6E1,8E0,2E0,1.5E1,9.1E1,3.3E1,1E0,4.8E1,1.1E1,2.9E1,1.23E2,7.6E1,1.5E1,5.3E1,4E1,1.57E2,1.02E2],"tree_param":{"num_deleted":"0","num_feature":"4","num_nodes":"119","size_leaf_vector":"1"}},{"base_weights":[4.9202025E-2,4.3662233E0,-1.6435893E0,9.092712E0,1.2318543E0,-2.7852046E-1,-2.666552E0,1.1234171E1,2.1768496E0,7.6068864E0,-1.3369346E-1,2.296472E0,-1.9636985E0,-2.8370688E0,-8.8481194E-1,-1.283489E0,1.2495105E1,5.5126724E0,1.0965725E0,1.2317146E1,7.2274655E-1,2.5479467E0,-1.4816562E0,3.7280524E0,-2.1733494E0,-1.3062078E0,-3.2846823E0,-2.3887568E0,-3.5073152E0,1.9573437E0,-1.2551922E0,4.5874453E0,-3.8354146E0,1.6964348E1,8.395569E0,3.2172856E0,-1.9272544E0,1.513281E1,-2.4061947E0,-5.946558E-1,5.5843263E0,4.1233835E0,-1.878161E0,6.8170005E-1,-2.6182E0,6.7333703E0,1.1441233E0,-3.1869988E0,8.397816E0,-1.4201001E0,3.6479318E0,2.3860459E-1,-3.635885E0,-2.6681702E0,-1.3796438E-1,-3.5904784E0,1.5851684E0,-1.2152472E0,3.217415E0,1.5627821E-1,-2.2976344E0,9.197932E-2,1.6743023E0,-1.4510005E0,9.265679E-1,3.5277092E0,7.85543E0,4.517682E0,1.4893775E0,4.893505E-1,3.0561578E0,-1.3967638E0,3.800874E-1,2.5899553E0,5.927089E0,1.1998034E-2,-1.0917861E0,6.976586E-1,-6.3639605E-1,3.8072148E-1,2.4114416E0,-1.7237816E0,1.4137845E0,-1.2347202E0,4.3267718E-1,-8.3275324E-1,9.395692E-1,-2.2427623E0,-6.80826E-1,1.639986E0,5.5859785E0,6.764045E-2,4.236248E0,-4.7251004E-1,-1.5032481E0,3.8819282E0,3.169799E-1,-3.3655444E-1,-1.3784204E0,-9.7784203E-1,8.109436E-1,-1.2286155E0,-4.3117034E-1,-8.209742E-1,1.9291295E0,-2.3349012E-1,1.2781978E0,-1.9289259E0,-1.0360147E0,9.468003E-1,-7.0472425E-1,-9.566806E-1,4.098194E-1,1.2214698E0,3.0182296E-1,-3.451435E-1,1.7624253E0,-9.209544E-1,-4.8107782E-1],"categories":[],"categories_nodes":[],"categories_segments":[],"categories_sizes":[],"default_left":[0,0,0,0,0,0,0,0,0,0,0,0,0,0,0,0,0,0,0,0,0,0,0,0,0,0,0,0,0,0,0,0,0,0,0,0,0,0,0,0,0,0,0,0,0,0,0,0,0,0,0,0,0,0,0,0,0,0,0,0,0,0,0,0,0,0,0,0,0,0,0,0,0,0,0,0,0,0,0,0,0,0,0,0,0,0,0,0,0,0,0,0,0,0,0,0,0,0,0,0,0,0,0,0,0,0,0,0,0,0,0,0,0,0,0,0,0,0,0],"id":2,"left_children":[1,3,5,7,9,11,13,15,17,19,21,23,25,27,29,31,33,-1,35,37,39,41,43,45,47,49,51,53,55,57,59,61,63,65,67,69,71,73,75,77,79,81,83,85,87,89,91,93,95,97,-1,99,101,103,105,107,109,111,113,115,117,-1,-1,-1,-1,-1,-1,-1,-1,-1,-1,-1,-1,-1,-1,-1,-1,-1,-1,-1,-1,-1,-1,-1,-1,-1,-1,-1,-1,-1,-1,-1,-1,-1,-1,-1,-1,-1,-1,-1,-1,-1,-1,-1,-1,-1,-1,-1,-1,-1,-1,-1,-1,-1,-1,-1,-1,-1,-1],"loss_changes":[1.31539375E4,7.499782E3,1.804821E3,2.96717E3,2.6648728E3,2.4128328E3,2.2201025E2,2.4467637E3,8.373064E2,1.7421064E3,9.183072E2,1.4158622E3,2.875371E2,1.9414502E2,7.193361E1,2.4232756E2,2.4226328E3,0E0,3.07596E2,1.3630039E3,1.5062784E2,6.004538E2,4.1731335E2,1.2891392E3,6.0539844E2,3.6387762E2,1.3821753E2,2.5559473E2,1.1919165E2,3.5891483E1,8.717027E1,1.9555313E1,9.119751E1,2.8597754E3,1.6398789E3,2.929255E2,1.8021494E2,6.409263E2,1.8243801E1,8.963787E1,4.2743164E1,3.9344348E2,1.7681857E2,5.0852188E2,1.710971E2,1.0576238E3,1.0816376E3,1.3910516E2,1.5304483E2,2.0788458E2,0E0,1.03643555E2,9.615222E1,2.4291919E2,1.3287955E2,8.055884E1,3.8313934E1,1.9640406E1,7.2365837E0,2.0104768E2,1.3299454E1,0E0,0E0,0E0,0E0,0E0,0E0,0E0,0E0,0E0,0E0,0E0,0E0,0E0,0E0,0E0,0E0,0E0,0E0,0E0,0E0,0E0,0E0,0E0,0E0,0E0,0E0,0E0,0E0,0E0,0E0,0E0,0E0,0E0,0E0,0E0,0E0,0E0,0E0,0E0,0E0,0E0,0E0,0E0,0E0,0E0,0E0,0E0,0E0,0E0,0E0,0E0,0E0,0E0,0E0,0E0,0E0,0E0,0E0],"parents":[2147483647,0,0,1,1,2,2,3,3,4,4,5,5,6,6,7,7,8,8,9,9,10,10,11,11,12,12,13,13,14,14,15,15,16,16,18,18,19,19,20,20,21,21,22,22,23,23,24,24,25,25,26,26,27,27,28,28,29,29,30,30,31,31,32,32,33,33,34,34,35,35,36,36,37,37,38,38,39,39,40,40,41,41,42,42,43,43,44,44,45,45,46,46,47,47,48,48,49,49,51,51,52,52,53,53,54,54,55,55,56,56,57,57,58,58,59,59,60,60],"right_children":[2,4,6,8,10,12,14,16,18,20,22,24,26,28,30,32,34,-1,36,38,40,42,44,46,48,50,52,54,56,58,60,62,64,66,68,70,72,74,76,78,80,82,84,86,88,90,92,94,96,98,-1,100,102,104,106,108,110,112,114,116,118,-1,-1,-1,-1,-1,-1,-1,-1,-1,-1,-1,-1,-1,-1,-1,-1,-1,-1,-1,-1,-1,-1,-1,-1,-1,-1,-1,-1,-1,-1,-1,-1,-1,-1,-1,-1,-1,-1,-1,-1,-1,-1,-1,-1,-1,-1,-1,-1,-1,-1,-1,-1,-1,-1,-1,-1,-1,-1],"split_conditions":[5.9929166E0,1.7106628E1,1.343875E1,2.5313916E2,5.3875E-1,1.8775303E1,2.3847082E1,2.993936E1,8.759178E0,2.167487E1,2.126609E2,2.5422568E2,2.7381308E1,1.9586117E1,1.2979984E1,-6.9458336E-1,1.4689532E2,5.5126724E0,3.0469528E2,2.8910165E2,1.616667E-1,2.4087738E1,5E-1,9.26375E0,1.8161278E1,2.7238941E1,6.4387493E0,4.2000003E0,2.4E1,9.83268E0,1.2149117E2,-6.88625E0,4.2970834E0,1.4386494E1,1.210157E1,1.5990646E1,2E-1,1.872346E1,1.8416384E1,2.261419E1,2.3042812E1,1.7581125E1,4.2970834E0,2.1325253E1,1.80036E1,1.781909E1,2.3522469E2,1.4637663E1,1E-1,1.2524166E1,3.6479318E0,6.2116666E0,3.694519E1,1.9469976E1,1.8775303E1,1.3847083E1,1.83325E1,2.60325E1,2E-1,1.9373219E1,2.5242912E1,9.197932E-2,1.6743023E0,-1.4510005E0,9.265679E-1,3.5277092E0,7.85543E0,4.517682E0,1.4893775E0,4.893505E-1,3.0561578E0,-1.3967638E0,3.800874E-1,2.5899553E0,5.927089E0,1.1998034E-2,-1.0917861E0,6.976586E-1,-6.3639605E-1,3.8072148E-1,2.4114416E0,-1.7237816E0,1.4137845E0,-1.2347202E0,4.3267718E-1,-8.3275324E-1,9.395692E-1,-2.2427623E0,-6.80826E-1,1.639986E0,5.5859785E0,6.764045E-2,4.236248E0,-4.7251004E-1,-1.5032481E0,3.8819282E0,3.169799E-1,-3.3655444E-1,-1.3784204E0,-9.7784203E-1,8.109436E-1,-1.2286155E0,-4.3117034E-1,-8.209742E-1,1.9291295E0,-2.3349012E-1,1.2781978E0,-1.9289259E0,-1.0360147E0,9.468003E-1,-7.0472425E-1,-9.566806E-1,4.098194E-1,1.2214698E0,3.0182296E-1,-3.451435E-1,1.7624253E0,-9.209544E-1,-4.8107782E-1],"split_indices":[0,2,0,3,0,2,0,3,2,2,3,3,2,2,2,0,3,0,3,3,0,2,1,0,2,2,0,1,1,2,3,0,0,2,2,2,1,2,2,2,2,2,0,2,2,2,3,2,1,0,0,0,2,2,2,0,0,0,1,2,0,0,0,0,0,0,0,0,0,0,0,0,0,0,0,0,0,0,0,0,0,0,0,0,0,0,0,0,0,0,0,0,0,0,0,0,0,0,0,0,0,0,0,0,0,0,0,0,0,0,0,0,0,0,0,0,0,0,0],"split_type":[0,0,0,0,0,0,0,0,0,0,0,0,0,0,0,0,0,0,0,0,0,0,0,0,0,0,0,0,0,0,0,0,0,0,0,0,0,0,0,0,0,0,0,0,0,0,0,0,0,0,0,0,0,0,0,0,0,0,0,0,0,0,0,0,0,0,0,0,0,0,0,0,0,0,0,0,0,0,0,0,0,0,0,0,0,0,0,0,0,0,0,0,0,0,0,0,0,0,0,0,0,0,0,0,0,0,0,0,0,0,0,0,0,0,0,0,0,0,0],"sum_hessian":[1.798E3,5.06E2,1.292E3,2.01E2,3.05E2,5.54E2,7.38E2,1.53E2,4.8E1,5.3E1,2.52E2,2.19E2,3.35E2,6.73E2,6.5E1,1.4E1,1.39E2,2E0,4.6E1,3.1E1,2.2E1,8.4E1,1.68E2,1.66E2,5.3E1,2.25E2,1.1E2,4.06E2,2.67E2,7E0,5.8E1,4E0,1E1,6.5E1,7.4E1,2.7E1,1.9E1,2.6E1,5E0,1.8E1,4E0,6.2E1,2.2E1,5.8E1,1.1E2,7.6E1,9E1,4.9E1,4E0,2.24E2,1E0,1E1,1E2,3.61E2,4.5E1,2.63E2,4E0,2E0,5E0,2.5E1,3.3E1,1E0,3E0,9E0,1E0,4.3E1,2.2E1,2.4E1,5E1,2.3E1,4E0,1E1,9E0,1.2E1,1.4E1,2E0,3E0,6E0,1.2E1,2E0,2E0,3E0,5.9E1,1.3E1,9E0,2.4E1,3.4E1,6E0,1.04E2,7E1,6E0,8.5E1,5E0,2.7E1,2.2E1,2E0,2E0,2.06E2,1.8E1,4E0,6E0,8.2E1,1.8E1,3.59E2,2E0,4E1,5E0,1E1,2.53E2,3E0,1E0,1E0,1E0,3E0,2E0,2.1E1,4E0,1.4E1,1.9E1],"tree_param":{"num_deleted":"0","num_feature":"4","num_nodes":"119","size_leaf_vector":"1"}},{"base_weights":[6.0743E-2,3.121515E0,-1.1394675E0,6.3211513E0,6.860763E-1,-2.2092406E-1,-1.9418745E0,7.5225377E0,2.083168E-1,4.036388E0,-4.4414875E-1,2.0592687E0,-1.111526E0,-2.224612E0,-1.1161095E0,9.4293284E-1,8.858228E0,3.7900517E0,-1.258624E0,-1.7618271E0,7.0929966E0,1.22494176E-1,-3.4976237E0,-3.1729386E0,3.6935859E0,3.3520567E-1,-2.2348495E0,-1.7511481E0,-2.5522635E0,-1.7063093E0,2.3481569E-1,9.459784E0,-9.84624E-1,1.8040852E1,6.6392407E0,-2.3162425E0,2.7794013E0,-7.901741E0,2.4025476E-1,1.5404094E0,-2.243076E0,8.465033E0,2.0694955E-1,7.9685736E-1,-1.6517638E0,-1.374706E0,-4.914931E0,1.5381082E0,-4.951593E0,6.1466227E0,1.2952586E0,-2.8718655E0,2.1315691E0,9.936945E-1,-2.7776718E0,-1.902352E0,4.919402E0,-2.7036736E0,-2.1557093E-2,-2.405995E0,-4.675815E-1,3.2418087E0,-5.9060997E-1,5.8404546E0,1.0693402E0,-9.116207E-1,2.5983639E0,1.9596758E0,8.094997E0,2.8842938E0,6.576869E-1,-1.5132611E0,6.279358E-1,-1.9460106E-2,-2.953423E0,1.012112E0,-4.9675E-1,-2.1793454E0,-3.6844045E-1,3.532128E0,1.4732299E0,1.5886779E0,-9.659913E-1,-1.6918144E-1,5.1673305E-1,-1.3746289E0,-3.2443082E-1,-1.0631521E0,-2.3051703E-1,2.5946619E-2,-1.6426347E0,3.1484666E0,-7.8407526E-1,-1.7442675E0,-3.859882E-1,9.459439E-1,3.1201284E0,-5.2761906E-1,1.241318E0,1.7454818E-1,-1.3184934E0,1.7859905E0,-1.702823E-1,1.1715376E0,-1.8742037E-1,-1.1650752E0,-5.7964104E-1,-1.1062778E0,-4.2530873E-1,-3.719708E-1,4.4334936E0,-7.688162E-1,-1.218432E0,3.1696823E-1,-9.1079277E-1,8.9546293E-1,-7.754347E-1,-2.6923907E-1,7.6436293E-1,2.4224496E0,-4.0916952E-1,-3.0354425E-1,8.6914355E-1],"categories":[],"categories_nodes":[],"categories_segments":[],"categories_sizes":[],"default_left":[0,0,0,0,0,0,0,0,0,0,0,0,0,0,0,0,0,0,0,0,0,0,0,0,0,0,0,0,0,0,0,0,0,0,0,0,0,0,0,0,0,0,0,0,0,0,0,0,0,0,0,0,0,0,0,0,0,0,0,0,0,0,0,0,0,0,0,0,0,0,0,0,0,0,0,0,0,0,0,0,0,0,0,0,0,0,0,0,0,0,0,0,0,0,0,0,0,0,0,0,0,0,0,0,0,0,0,0,0,0,0,0,0,0,0,0,0,0,0,0,0,0,0],"id":3,"left_children":[1,3,5,7,9,11,13,15,17,19,21,23,25,27,29,31,33,35,37,39,41,43,45,47,49,51,53,55,57,59,61,63,65,67,69,71,-1,73,75,-1,77,79,81,83,85,87,89,91,93,95,97,99,101,103,105,107,109,111,113,115,117,119,121,-1,-1,-1,-1,-1,-1,-1,-1,-1,-1,-1,-1,-1,-1,-1,-1,-1,-1,-1,-1,-1,-1,-1,-1,-1,-1,-1,-1,-1,-1,-1,-1,-1,-1,-1,-1,-1,-1,-1,-1,-1,-1,-1,-1,-1,-1,-1,-1,-1,-1,-1,-1,-1,-1,-1,-1,-1,-1,-1,-1],"loss_changes":[6.6123115E3,3.9464688E3,9.5257104E2,1.6067422E3,1.096122E3,1.2288584E3,1.586145E2,1.5999082E3,1.9917538E2,1.3062665E3,3.7588834E2,1.4654043E3,7.076883E2,7.511279E1,1.4232292E2,5.346492E2,2.9773926E3,3.8918518E2,2.7074353E2,9.781008E1,4.517473E2,2.2147116E2,9.554355E1,3.5116827E2,7.568524E2,1.1064852E3,4.3212915E2,2.2419293E2,1.1527734E2,1.063483E2,1.3842735E2,2.8462238E2,5.612869E2,2.8082832E3,1.6194419E3,8.272951E1,0E0,7.5496735E1,1.4223619E2,0E0,1.1848909E2,4.125857E2,1.7399702E2,1.6974884E2,8.027849E1,1.7004658E1,5.654126E1,4.7365884E2,8.736481E1,7.8216064E2,5.888951E2,3.6552197E2,1.2721896E3,1.7206967E2,1.8886475E2,1.756048E2,3.219438E2,4.3943848E1,6.1705868E1,8.385693E1,6.191603E1,2.781271E2,6.756987E1,0E0,0E0,0E0,0E0,0E0,0E0,0E0,0E0,0E0,0E0,0E0,0E0,0E0,0E0,0E0,0E0,0E0,0E0,0E0,0E0,0E0,0E0,0E0,0E0,0E0,0E0,0E0,0E0,0E0,0E0,0E0,0E0,0E0,0E0,0E0,0E0,0E0,0E0,0E0,0E0,0E0,0E0,0E0,0E0,0E0,0E0,0E0,0E0,0E0,0E0,0E0,0E0,0E0,0E0,0E0,0E0,0E0,0E0,0E0,0E0],"parents":[2147483647,0,0,1,1,2,2,3,3,4,4,5,5,6,6,7,7,8,8,9,9,10,10,11,11,12,12,13,13,14,14,15,15,16,16,17,17,18,18,19,19,20,20,21,21,22,22,23,23,24,24,25,25,26,26,27,27,28,28,29,29,30,30,31,31,32,32,33,33,34,34,35,35,37,37,38,38,40,40,41,41,42,42,43,43,44,44,45,45,46,46,47,47,48,48,49,49,50,50,51,51,52,52,53,53,54,54,55,55,56,56,57,57,58,58,59,59,60,60,61,61,62,62],"right_children":[2,4,6,8,10,12,14,16,18,20,22,24,26,28,30,32,34,36,38,40,42,44,46,48,50,52,54,56,58,60,62,64,66,68,70,72,-1,74,76,-1,78,80,82,84,86,88,90,92,94,96,98,100,102,104,106,108,110,112,114,116,118,120,122,-1,-1,-1,-1,-1,-1,-1,-1,-1,-1,-1,-1,-1,-1,-1,-1,-1,-1,-1,-1,-1,-1,-1,-1,-1,-1,-1,-1,-1,-1,-1,-1,-1,-1,-1,-1,-1,-1,-1,-1,-1,-1,-1,-1,-1,-1,-1,-1,-1,-1,-1,-1,-1,-1,-1,-1,-1,-1,-1,-1],"split_conditions":[5.9929166E0,1.781909E1,1.4284583E1,2.8812955E2,1.5850267E2,1.7732928E2,2.1134584E1,5.967863E1,-1.5820833E0,6.5016884E1,2.9243872E2,4.45767E1,5E-1,1.7414474E1,7E-1,-6.9458336E-1,1.07928E2,-3.9050007E0,2.9173322E2,1.7974781E1,1.9000002E0,3.0259275E1,2.0380579E1,1.257426E1,9.465834E0,2.2949945E2,2.0819896E2,1.731746E1,1.0000002E1,2.4074165E1,1.4205182E1,9.983106E0,4.784583E0,1.4386494E1,1.4689589E1,1E-1,2.7794013E0,1.1119281E1,3.0469528E2,1.5404094E0,1.9011953E1,8.8875E-1,2.0140705E1,2.142227E1,2.1658332E0,1.80036E1,2.9516315E2,9.949167E0,1.3000002E0,1E-1,1.17005424E2,1.55843E1,2.6357547E2,1.7551615E1,2.469011E2,8.9330795E1,1.782625E1,3.0913477E2,2.3277834E1,9.114471E0,2.2734219E1,8.8055374E1,3.0752042E2,5.8404546E0,1.0693402E0,-9.116207E-1,2.5983639E0,1.9596758E0,8.094997E0,2.8842938E0,6.576869E-1,-1.5132611E0,6.279358E-1,-1.9460106E-2,-2.953423E0,1.012112E0,-4.9675E-1,-2.1793454E0,-3.6844045E-1,3.532128E0,1.4732299E0,1.5886779E0,-9.659913E-1,-1.6918144E-1,5.1673305E-1,-1.3746289E0,-3.2443082E-1,-1.0631521E0,-2.3051703E-1,2.5946619E-2,-1.6426347E0,3.1484666E0,-7.8407526E-1,-1.7442675E0,-3.859882E-1,9.459439E-1,3.1201284E0,-5.2761906E-1,1.241318E0,1.7454818E-1,-1.3184934E0,1.7859905E0,-1.702823E-1,1.1715376E0,-1.8742037E-1,-1.1650752E0,-5.7964104E-1,-1.1062778E0,-4.2530873E-1,-3.719708E-1,4.4334936E0,-7.688162E-1,-1.218432E0,3.1696823E-1,-9.1079277E-1,8.9546293E-1,-7.754347E-1,-2.6923907E-1,7.6436293E-1,2.4224496E0,-4.0916952E-1,-3.0354425E-1,8.6914355E-1],"split_indices":[0,2,0,3,3,3,0,3,0,3,3,3,1,2,1,0,3,0,3,2,1,2,2,2,0,3,3,2,1,0,2,2,0,2,2,1,0,2,3,0,2,0,2,2,0,2,3,0,1,1,3,2,3,2,3,3,0,3,2,2,2,3,3,0,0,0,0,0,0,0,0,0,0,0,0,0,0,0,0,0,0,0,0,0,0,0,0,0,0,0,0,0,0,0,0,0,0,0,0,0,0,0,0,0,0,0,0,0,0,0,0,0,0,0,0,0,0,0,0,0,0,0,0],"split_type":[0,0,0,0,0,0,0,0,0,0,0,0,0,0,0,0,0,0,0,0,0,0,0,0,0,0,0,0,0,0,0,0,0,0,0,0,0,0,0,0,0,0,0,0,0,0,0,0,0,0,0,0,0,0,0,0,0,0,0,0,0,0,0,0,0,0,0,0,0,0,0,0,0,0,0,0,0,0,0,0,0,0,0,0,0,0,0,0,0,0,0,0,0,0,0,0,0,0,0,0,0,0,0,0,0,0,0,0,0,0,0,0,0,0,0,0,0,0,0,0,0,0,0],"sum_hessian":[1.798E3,5.06E2,1.292E3,2.18E2,2.88E2,6.03E2,6.89E2,1.82E2,3.6E1,7.2E1,2.16E2,1.69E2,4.34E2,5.12E2,1.77E2,3.1E1,1.51E2,1E1,2.6E1,2.5E1,4.7E1,1.83E2,3.3E1,4E1,1.29E2,1.9E2,2.44E2,2.12E2,3E2,1.23E2,5.4E1,5E0,2.6E1,2.8E1,1.23E2,5E0,5E0,4E0,2.2E1,1E0,2.4E1,3.9E1,8E0,1.33E2,5E1,1.4E1,1.9E1,1.1E1,2.9E1,6.3E1,6.6E1,6.8E1,1.22E2,3.5E1,2.09E2,2.08E2,4E0,2.83E2,1.7E1,7.8E1,4.5E1,1.1E1,4.3E1,1E0,4E0,2.2E1,4E0,1.3E1,1.5E1,7.3E1,5E1,3E0,2E0,1E0,3E0,8E0,1.4E1,3E0,2.1E1,1.9E1,2E1,3E0,5E0,5.4E1,7.9E1,7E0,4.3E1,2E0,1.2E1,2E0,1.7E1,3E0,8E0,2.3E1,6E0,3.8E1,2.5E1,3.2E1,3.4E1,2.1E1,4.7E1,5E1,7.2E1,1.2E1,2.3E1,8.9E1,1.2E2,4.3E1,1.65E2,3E0,1E0,2.59E2,2.4E1,1.3E1,4E0,2E0,7.6E1,4E1,5E0,5E0,6E0,3.9E1,4E0],"tree_param":{"num_deleted":"0","num_feature":"4","num_nodes":"123","size_leaf_vector":"1"}},{"base_weights":[5.9116326E-2,1.7872125E0,-1.0483685E0,3.6954873E0,-5.6151456E-1,1.3314348E-1,-1.2804352E0,6.230304E0,2.018648E0,1.6449088E0,-1.0430708E0,5.1461744E0,-2.854016E-1,-1.1990652E0,-3.3583953E0,1.4396919E0,8.452211E0,-7.331903E0,2.380482E0,-1.7248399E0,6.0271807E0,-4.9939694E0,-7.2856605E-1,-3.2801726E0,1.1875957E1,-6.847429E-1,3.8335292E0,-2.489836E0,-1.1120876E0,-3.5295124E0,-4.1368294E-1,-6.336817E-1,5.160894E0,-9.812143E-1,9.91429E0,-2.5464404E0,2.876916E-1,3.9603708E0,6.030082E-1,-2.1268697E0,3.0044143E0,7.2904987E0,-1.7001961E0,-5.457028E0,5.011623E-1,4.621806E0,-1.0524815E0,-2.14497E0,4.2627635E0,-2.591885E0,6.322512E0,1.9824351E0,-1.0523285E0,1.0253866E1,5.6669134E-1,-3.6409004E0,-2.9342803E-1,3.5177488E0,-1.1500691E0,-1.5964742E0,-3.083446E0,1.84232E-1,-3.7038934E-1,2.3320444E0,-7.237755E-1,4.3291152E-1,4.3616133E0,7.5929767E-1,-4.762111E0,2.0214128E0,4.3103356E0,8.724957E-1,2.8199363E0,4.7229595E0,9.4313525E-2,-7.324664E-1,1.0970511E0,1.5872298E-1,1.1932635E0,1.2572626E0,3.0872757E0,-7.339537E-1,-1.8427274E0,2.6867616E0,-7.948782E-1,-2.6126823E-1,-1.2007905E0,2.9416065E0,-1.0233631E0,-1.0311546E0,-8.399106E-3,-3.6702213E-1,2.7396984E0,-4.5134363E-1,2.0034854E-1,5.7475853E0,-6.20652E-1,-7.110539E-1,1.3694918E0,-1.1962919E0,-4.904238E-1,-7.7472794E-1,1.0388619E0,-5.824354E-1,3.4331498E0,-1.9039701E-1,-4.3552142E-1,-6.760232E-1,-1.2484119E0],"categories":[],"categories_nodes":[],"categories_segments":[],"categories_sizes":[],"default_left":[0,0,0,0,0,0,0,0,0,0,0,0,0,0,0,0,0,0,0,0,0,0,0,0,0,0,0,0,0,0,0,0,0,0,0,0,0,0,0,0,0,0,0,0,0,0,0,0,0,0,0,0,0,0,0,0,0,0,0,0,0,0,0,0,0,0,0,0,0,0,0,0,0,0,0,0,0,0,0,0,0,0,0,0,0,0,0,0,0,0,0,0,0,0,0,0,0,0,0,0,0,0,0,0,0,0,0,0,0],"id":4,"left_children":[1,3,5,7,9,11,13,15,17,19,21,23,25,27,29,31,33,35,37,39,41,43,45,47,49,51,53,55,57,59,61,63,65,67,69,-1,-1,71,73,75,77,79,-1,81,-1,83,85,-1,87,89,-1,91,93,95,97,99,101,103,105,-1,107,-1,-1,-1,-1,-1,-1,-1,-1,-1,-1,-1,-1,-1,-1,-1,-1,-1,-1,-1,-1,-1,-1,-1,-1,-1,-1,-1,-1,-1,-1,-1,-1,-1,-1,-1,-1,-1,-1,-1,-1,-1,-1,-1,-1,-1,-1,-1,-1],"loss_changes":[3.444872E3,3.1529324E3,3.0095654E2,1.6366099E3,3.374711E2,3.8123926E2,1.5102283E2,1.6270532E3,8.1254E2,8.521238E2,3.194314E2,8.3286E2,2.7896133E2,9.6476074E1,1.567218E1,3.8904248E2,1.4579312E3,9.441531E1,6.350758E2,6.9132935E1,4.106646E2,6.775131E1,4.2426688E2,2.3480205E2,1.1193512E3,1.5307027E2,3.088022E2,1.3798303E2,1.4999976E2,9.171387E0,3.289481E0,5.122867E2,6.065967E2,8.247586E2,1.1904209E3,0E0,0E0,6.5936804E2,4.6700098E2,6.534975E1,5.122055E0,1.7077588E2,0E0,2.2113647E1,0E0,4.649356E2,1.19191925E2,0E0,1.6104922E2,8.572758E0,0E0,4.4667966E2,1.0678136E2,5.882893E2,1.3998659E2,1.8523315E1,1.8090593E2,3.251082E2,1.2719739E2,0E0,1.5674805E1,0E0,0E0,0E0,0E0,0E0,0E0,0E0,0E0,0E0,0E0,0E0,0E0,0E0,0E0,0E0,0E0,0E0,0E0,0E0,0E0,0E0,0E0,0E0,0E0,0E0,0E0,0E0,0E0,0E0,0E0,0E0,0E0,0E0,0E0,0E0,0E0,0E0,0E0,0E0,0E0,0E0,0E0,0E0,0E0,0E0,0E0,0E0,0E0],"parents":[2147483647,0,0,1,1,2,2,3,3,4,4,5,5,6,6,7,7,8,8,9,9,10,10,11,11,12,12,13,13,14,14,15,15,16,16,17,17,18,18,19,19,20,20,21,21,22,22,23,23,24,24,25,25,26,26,27,27,28,28,29,29,30,30,31,31,32,32,33,33,34,34,37,37,38,38,39,39,40,40,41,41,43,43,45,45,46,46,48,48,49,49,51,51,52,52,53,53,54,54,55,55,56,56,57,57,58,58,60,60],"right_children":[2,4,6,8,10,12,14,16,18,20,22,24,26,28,30,32,34,36,38,40,42,44,46,48,50,52,54,56,58,60,62,64,66,68,70,-1,-1,72,74,76,78,80,-1,82,-1,84,86,-1,88,90,-1,92,94,96,98,100,102,104,106,-1,108,-1,-1,-1,-1,-1,-1,-1,-1,-1,-1,-1,-1,-1,-1,-1,-1,-1,-1,-1,-1,-1,-1,-1,-1,-1,-1,-1,-1,-1,-1,-1,-1,-1,-1,-1,-1,-1,-1,-1,-1,-1,-1,-1,-1,-1,-1,-1,-1],"split_conditions":[8.190834E0,2.0633371E1,1.3556282E1,1.5850267E2,1.3864043E2,9.145E0,3.3191425E2,5.967863E1,1.6647849E2,9.107165E1,2.142227E1,8.509583E0,1.3339445E1,4.45767E1,2.2530416E1,4.8720837E0,-1.8695832E0,1.8000001E0,2.4946889E2,5.999999E0,5.3E0,4.7000003E0,2.1868332E1,2.5575557E2,1.1792404E1,1.1434583E1,1.9442271E2,1.7695002E1,4.976371E1,1.2272084E1,2.2751251E1,-6.9458336E-1,4E-1,1E-1,1E-1,-2.5464404E0,2.876916E-1,2.3922177E2,8.39657E0,8.161667E0,3.5124996E-1,1E-1,-1.7001961E0,9.408335E-1,5.011623E-1,4.5554166E0,3.1226492E2,-2.14497E0,1.0636766E1,9.067918E0,6.322512E0,1.0899167E1,2.1134584E1,1.5065833E1,1.3450708E1,1.3000002E0,1.8416384E1,1.5856354E1,1.4074168E1,-1.5964742E0,1.6636667E1,1.84232E-1,-3.7038934E-1,2.3320444E0,-7.237755E-1,4.3291152E-1,4.3616133E0,7.5929767E-1,-4.762111E0,2.0214128E0,4.3103356E0,8.724957E-1,2.8199363E0,4.7229595E0,9.4313525E-2,-7.324664E-1,1.0970511E0,1.5872298E-1,1.1932635E0,1.2572626E0,3.0872757E0,-7.339537E-1,-1.8427274E0,2.6867616E0,-7.948782E-1,-2.6126823E-1,-1.2007905E0,2.9416065E0,-1.0233631E0,-1.0311546E0,-8.399106E-3,-3.6702213E-1,2.7396984E0,-4.5134363E-1,2.0034854E-1,5.7475853E0,-6.20652E-1,-7.110539E-1,1.3694918E0,-1.1962919E0,-4.904238E-1,-7.7472794E-1,1.0388619E0,-5.824354E-1,3.4331498E0,-1.9039701E-1,-4.3552142E-1,-6.760232E-1,-1.2484119E0],"split_indices":[0,2,2,3,3,0,3,3,3,3,2,0,2,3,0,0,0,1,3,1,1,1,2,3,2,0,3,0,3,0,0,0,1,1,1,0,0,3,2,0,0,1,0,0,0,0,3,0,2,0,0,0,0,0,2,1,2,2,0,0,0,0,0,0,0,0,0,0,0,0,0,0,0,0,0,0,0,0,0,0,0,0,0,0,0,0,0,0,0,0,0,0,0,0,0,0,0,0,0,0,0,0,0,0,0,0,0,0,0],"split_type":[0,0,0,0,0,0,0,0,0,0,0,0,0,0,0,0,0,0,0,0,0,0,0,0,0,0,0,0,0,0,0,0,0,0,0,0,0,0,0,0,0,0,0,0,0,0,0,0,0,0,0,0,0,0,0,0,0,0,0,0,0,0,0,0,0,0,0,0,0,0,0,0,0,0,0,0,0,0,0,0,0,0,0,0,0,0,0,0,0,0,0,0,0,0,0,0,0,0,0,0,0,0,0,0,0,0,0,0,0],"sum_hessian":[1.798E3,7.02E2,1.096E3,3.87E2,3.15E2,1.8E2,9.16E2,1.53E2,2.34E2,5.6E1,2.59E2,1.3E1,1.67E2,8.83E2,3.3E1,4.9E1,1.04E2,8E0,2.26E2,3.2E1,2.4E1,1.8E1,2.41E2,6E0,7E0,1.53E2,1.4E1,5.4E1,8.29E2,3.1E1,2E0,3.2E1,1.7E1,1.4E1,9E1,7E0,1E0,1.19E2,1.07E2,3E1,2E0,2.2E1,2E0,1.7E1,1E0,1.3E1,2.28E2,4E0,2E0,3E0,4E0,1.8E1,1.35E2,4E0,1E1,3.5E1,1.9E1,6E0,8.23E2,4E0,2.7E1,1E0,1E0,5E0,2.7E1,1.3E1,4E0,1.2E1,2E0,5.4E1,3.6E1,1.01E2,1.8E1,1E0,1.06E2,2.9E1,1E0,1E0,1E0,1.2E1,1E1,4E0,1.3E1,8E0,5E0,2.16E2,1.2E1,1E0,1E0,2E0,1E0,1.3E1,5E0,1.07E2,2.8E1,2E0,2E0,6E0,4E0,2.9E1,6E0,1.2E1,7E0,4E0,2E0,3.05E2,5.18E2,1.7E1,1E1],"tree_param":{"num_deleted":"0","num_feature":"4","num_nodes":"109","size_leaf_vector":"1"}},{"base_weights":[5.6810256E-2,3.4737086E0,-2.5159353E-1,2.9134612E0,1.298389E1,1.1092237E0,-6.56541E-1,3.9708953E0,-1.3438135E0,2.619929E1,4.2122073E0,4.6077247E0,-1.2729171E-1,-1.9317417E0,-5.306536E-1,5.033316E0,-2.2290467E-1,-6.7516623E0,1.4273014E0,1.0361817E1,1.4278634E0,-7.0920384E-1,6.0002537E0,8.176212E0,1.8348705E0,-1.8411367E0,3.074481E-1,-3.137717E0,2.9201216E-1,6.4761585E-1,-7.6942056E-1,8.903229E-1,7.0562587E0,2.290204E0,-2.9268637E0,-8.02987E0,7.128316E-1,8.720315E0,-2.3211558E0,3.6712196E0,1.3816183E0,-8.62175E0,1.1133226E1,1.0211226E0,7.1107125E0,-2.2287521E0,2.635814E0,2.3130205E0,-5.9445906E-1,-1.1370216E1,-1.5198169E0,3.067399E0,-4.2362423E0,2.5732949E0,-5.93425E-1,-2.7653795E-1,-1.0863423E0,1.30826E0,-4.2891264E0,7.815993E0,1.7912129E0,-5.542556E-1,1.5321662E0,4.7598118E-1,-1.3822927E0,-2.6906433E0,-7.775116E-2,3.5700476E0,-1.5538107E0,-1.8736643E0,-3.8053323E-2,-7.706294E-2,6.040226E-1,-7.16697E-1,-3.8097217E0,-1.2989582E-1,5.0106983E0,1.1558696E0,-4.6845394E-1,-7.6112145E-1,3.7155873E-1,1.2128646E0,-4.4886854E-1,3.6433287E0,4.5995134E-1,1.1984221E-1,-4.559098E-1,-6.5962553E0,-9.9393785E-1,-1.1848437E-1,-1.1755614E0,3.2282062E0,-9.9996604E-2,-2.1701853E0,-3.302755E-1,1.2699275E0,-4.5229986E-1,8.783074E-2,-4.2815024E-1,1.3797465E-1,-2.7723688E-1,-1.5510544E-1,-3.9008877E-1],"categories":[],"categories_nodes":[],"categories_segments":[],"categories_sizes":[],"default_left":[0,0,0,0,0,0,0,0,0,0,0,0,0,0,0,0,0,0,0,0,0,0,0,0,0,0,0,0,0,0,0,0,0,0,0,0,0,0,0,0,0,0,0,0,0,0,0,0,0,0,0,0,0,0,0,0,0,0,0,0,0,0,0,0,0,0,0,0,0,0,0,0,0,0,0,0,0,0,0,0,0,0,0,0,0,0,0,0,0,0,0,0,0,0,0,0,0,0,0,0,0,0,0],"id":5,"left_children":[1,3,5,7,9,11,13,15,17,19,21,23,25,27,29,31,33,35,37,-1,-1,-1,39,41,43,45,47,49,51,53,55,57,59,61,63,65,-1,67,69,-1,71,73,75,77,-1,79,81,83,85,87,89,91,93,95,97,99,101,-1,-1,-1,-1,-1,-1,-1,-1,-1,-1,-1,-1,-1,-1,-1,-1,-1,-1,-1,-1,-1,-1,-1,-1,-1,-1,-1,-1,-1,-1,-1,-1,-1,-1,-1,-1,-1,-1,-1,-1,-1,-1,-1,-1,-1,-1],"loss_changes":[1.8966322E3,7.5605225E2,9.105275E2,6.445902E2,8.170133E2,1.6401216E3,2.0333185E2,5.0905786E2,4.44224E2,3.7203735E2,8.473619E1,9.645925E2,2.0993256E2,3.066405E2,3.2684326E2,7.5639233E2,1.6979135E2,1.3575165E2,5.6699225E2,0E0,0E0,0E0,1.2712805E2,2.2318755E3,9.90091E2,1.047887E2,4.0836398E2,9.683522E2,5.282682E2,4.6993692E2,1.5043762E2,1.6963136E3,1.1023997E3,1.6096411E2,9.834418E1,6.3341614E1,0E0,3.7102698E2,1.1976648E2,0E0,4.657938E0,1.4755286E2,2.3905278E3,4.1556927E2,0E0,5.980081E1,3.5119396E1,5.180718E2,1.4406885E2,9.53687E2,1.6844193E2,6.838176E2,1.4241666E2,5.2794666E2,8.908074E1,1.8117624E2,7.082959E1,0E0,0E0,0E0,0E0,0E0,0E0,0E0,0E0,0E0,0E0,0E0,0E0,0E0,0E0,0E0,0E0,0E0,0E0,0E0,0E0,0E0,0E0,0E0,0E0,0E0,0E0,0E0,0E0,0E0,0E0,0E0,0E0,0E0,0E0,0E0,0E0,0E0,0E0,0E0,0E0,0E0,0E0,0E0,0E0,0E0,0E0],"parents":[2147483647,0,0,1,1,2,2,3,3,4,4,5,5,6,6,7,7,8,8,9,9,10,10,11,11,12,12,13,13,14,14,15,15,16,16,17,17,18,18,22,22,23,23,24,24,25,25,26,26,27,27,28,28,29,29,30,30,31,31,32,32,33,33,34,34,35,35,37,37,38,38,40,40,41,41,42,42,43,43,45,45,46,46,47,47,48,48,49,49,50,50,51,51,52,52,53,53,54,54,55,55,56,56],"right_children":[2,4,6,8,10,12,14,16,18,20,22,24,26,28,30,32,34,36,38,-1,-1,-1,40,42,44,46,48,50,52,54,56,58,60,62,64,66,-1,68,70,-1,72,74,76,78,-1,80,82,84,86,88,90,92,94,96,98,100,102,-1,-1,-1,-1,-1,-1,-1,-1,-1,-1,-1,-1,-1,-1,-1,-1,-1,-1,-1,-1,-1,-1,-1,-1,-1,-1,-1,-1,-1,-1,-1,-1,-1,-1,-1,-1,-1,-1,-1,-1,-1,-1,-1,-1,-1,-1],"split_conditions":[8.8875E-1,8.1374997E-1,1.5192682E1,3.5124996E-1,1E-1,7.922083E0,1.623596E1,2.8448862E2,1.3339445E1,1.5192682E1,8.759178E0,1.4689532E2,8.274206E1,3E-1,1.7974781E1,9.221737E1,-1.5820833E0,5.3875E-1,5.3875E-1,1.0361817E1,1.4278634E0,-7.0920384E-1,1.0805999E1,1.7449999E0,7.78875E0,3.6999998E0,1.7538014E2,3.3741667E0,1.8000002E0,1.2272084E1,8.73875E0,7.5349106E1,9.381399E1,-3.9050007E0,1.0086427E1,2.38364E2,7.128316E-1,2.1E0,2.0017355E2,3.6712196E0,2.068356E1,2.3885681E1,4.45767E1,4.2970834E0,7.1107125E0,1.4529915E1,1.318308E1,9.145E0,1E-1,1.2816164E2,2.3323863E2,4.8720837E0,9.26375E0,2.6162726E2,2.0953865E2,2.4442913E1,1.7825679E2,1.30826E0,-4.2891264E0,7.815993E0,1.7912129E0,-5.542556E-1,1.5321662E0,4.7598118E-1,-1.3822927E0,-2.6906433E0,-7.775116E-2,3.5700476E0,-1.5538107E0,-1.8736643E0,-3.8053323E-2,-7.706294E-2,6.040226E-1,-7.16697E-1,-3.8097217E0,-1.2989582E-1,5.0106983E0,1.1558696E0,-4.6845394E-1,-7.6112145E-1,3.7155873E-1,1.2128646E0,-4.4886854E-1,3.6433287E0,4.5995134E-1,1.1984221E-1,-4.559098E-1,-6.5962553E0,-9.9393785E-1,-1.1848437E-1,-1.1755614E0,3.2282062E0,-9.9996604E-2,-2.1701853E0,-3.302755E-1,1.2699275E0,-4.5229986E-1,8.783074E-2,-4.2815024E-1,1.3797465E-1,-2.7723688E-1,-1.5510544E-1,-3.9008877E-1],"split_indices":[0,0,2,0,1,0,2,3,2,2,2,3,3,1,2,3,0,0,0,0,0,0,2,0,0,1,3,0,1,0,0,3,3,0,2,3,0,1,3,0,2,3,3,0,0,2,2,0,1,3,3,0,0,3,3,2,3,0,0,0,0,0,0,0,0,0,0,0,0,0,0,0,0,0,0,0,0,0,0,0,0,0,0,0,0,0,0,0,0,0,0,0,0,0,0,0,0,0,0,0,0,0,0],"split_type":[0,0,0,0,0,0,0,0,0,0,0,0,0,0,0,0,0,0,0,0,0,0,0,0,0,0,0,0,0,0,0,0,0,0,0,0,0,0,0,0,0,0,0,0,0,0,0,0,0,0,0,0,0,0,0,0,0,0,0,0,0,0,0,0,0,0,0,0,0,0,0,0,0,0,0,0,0,0,0,0,0,0,0,0,0,0,0,0,0,0,0,0,0,0,0,0,0,0,0,0,0,0,0],"sum_hessian":[1.798E3,1.48E2,1.65E3,1.41E2,7E0,3.78E2,1.272E3,1.13E2,2.8E1,2E0,5E0,9.8E1,2.8E2,1.13E2,1.159E3,9E1,2.3E1,9E0,1.9E1,1E0,1E0,1E0,4E0,4.2E1,5.6E1,5.6E1,2.24E2,7.3E1,4E1,1.95E2,9.64E2,3E1,6E1,1.2E1,1.1E1,8E0,1E0,6E0,1.3E1,1E0,3E0,6E0,3.6E1,5.5E1,1E0,5.2E1,4E0,6.9E1,1.55E2,1.1E1,6.2E1,2.5E1,1.5E1,7.6E1,1.19E2,3.78E2,5.86E2,2.5E1,5E0,2E0,5.8E1,5E0,7E0,3E0,8E0,7E0,1E0,5E0,1E0,4E0,9E0,1E0,2E0,3E0,3E0,1.2E1,2.4E1,2.6E1,2.9E1,4.8E1,4E0,3E0,1E0,4E0,6.5E1,7.5E1,8E1,4E0,7E0,4.3E1,1.9E1,7E0,1.8E1,7E0,8E0,5.4E1,2.2E1,5.8E1,6.1E1,1.77E2,2.01E2,1.61E2,4.25E2],"tree_param":{"num_deleted":"0","num_feature":"4","num_nodes":"103","size_leaf_vector":"1"}},{"base_weights":[5.3027924E-2,2.5659957E0,-1.7379534E-1,2.0728514E0,1.0998554E1,8.1691825E-1,-4.8913527E-1,2.833037E0,-1.1233687E0,2.2269396E1,3.5300412E0,3.7516851E0,6.916575E-2,-5.7020807E0,-4.2562976E-1,1.7961651E0,7.1345325E0,-1.9576824E0,4.371933E0,8.807545E0,1.2136837E0,-6.02823E-1,5.0398135E0,5.567528E0,-2.0650115E0,-2.3882692E0,3.8042805E-1,-6.320646E0,4.4367373E-1,-3.8663575E-1,-3.0492442E0,-1.1296999E-1,5.3285956E0,-1.238738E0,1.200774E1,-8.7191755E-1,-3.4991379E0,5.965521E0,-6.1324455E-2,3.1205368E0,1.0988724E0,-3.5461016E0,7.8257213E0,-2.2247837E0,-1.0584663E0,-3.229683E0,9.6038926E-1,1.44039E0,-4.6193445E-1,-2.7329056E0,-3.758992E0,-4.1492113E-1,5.4150243E0,-3.8011906E0,-1.8749434E0,1.1745018E0,-5.95146E-1,6.536438E0,1.0691545E0,-3.263248E0,3.9773792E-1,6.4726715E0,-1.9269477E-1,-7.8784984E-1,3.6318055E-1,-5.2690316E-2,-1.1546704E0,2.1175928E0,5.668917E-1,-6.550355E-2,4.8321804E-1,1.041E0,-3.0166852E0,1.8726759E0,5.5192347E0,1.624832E0,-6.6188836E-1,-1.5226219E0,-6.436012E-1,7.783176E-1,-1.616672E-1,-9.3266886E-1,6.3911015E-1,-1.8473816E-1,1.0692338E0,7.5690967E-1,-1.4578872E0,1.5002563E-2,-1.8102612E-1,-1.0106008E0,2.3536491E0,-1.6793711E-1,-1.2297442E0,-7.2821146E-1,1.1710977E-2],"categories":[],"categories_nodes":[],"categories_segments":[],"categories_sizes":[],"default_left":[0,0,0,0,0,0,0,0,0,0,0,0,0,0,0,0,0,0,0,0,0,0,0,0,0,0,0,0,0,0,0,0,0,0,0,0,0,0,0,0,0,0,0,0,0,0,0,0,0,0,0,0,0,0,0,0,0,0,0,0,0,0,0,0,0,0,0,0,0,0,0,0,0,0,0,0,0,0,0,0,0,0,0,0,0,0,0,0,0,0,0,0,0,0,0],"id":6,"left_children":[1,3,5,7,9,11,13,15,17,19,21,23,25,27,29,31,33,35,37,-1,-1,-1,39,41,43,45,47,49,-1,51,53,55,57,59,61,63,65,67,-1,-1,69,71,73,-1,75,77,79,81,83,-1,85,87,89,91,93,-1,-1,-1,-1,-1,-1,-1,-1,-1,-1,-1,-1,-1,-1,-1,-1,-1,-1,-1,-1,-1,-1,-1,-1,-1,-1,-1,-1,-1,-1,-1,-1,-1,-1,-1,-1,-1,-1,-1,-1],"loss_changes":[1.0258751E3,5.9681323E2,5.1619104E2,3.4820276E2,5.947994E2,8.753379E2,4.123796E2,5.0009656E2,1.3693341E2,2.6879688E2,6.0306908E1,8.6703564E2,2.4491383E2,7.597635E1,1.255773E2,6.345274E2,9.1257764E2,3.879049E1,3.0390694E1,0E0,0E0,0E0,9.422589E1,1.3037318E3,9.986963E1,1.04535614E2,2.542411E2,6.578052E1,0E0,2.0277974E2,8.767197E0,4.7498248E2,8.808986E2,2.3689128E2,1.7083285E3,6.163134E1,1.0948395E1,2.8015137E-2,0E0,0E0,3.0485883E0,6.2862146E2,7.2215796E2,0E0,1.4572008E2,4.715222E1,2.099671E1,4.0212482E2,1.0068654E2,0E0,7.4488754E1,1.0668669E2,1.5452003E2,7.3632965E0,9.610785E0,0E0,0E0,0E0,0E0,0E0,0E0,0E0,0E0,0E0,0E0,0E0,0E0,0E0,0E0,0E0,0E0,0E0,0E0,0E0,0E0,0E0,0E0,0E0,0E0,0E0,0E0,0E0,0E0,0E0,0E0,0E0,0E0,0E0,0E0,0E0,0E0,0E0,0E0,0E0,0E0],"parents":[2147483647,0,0,1,1,2,2,3,3,4,4,5,5,6,6,7,7,8,8,9,9,10,10,11,11,12,12,13,13,14,14,15,15,16,16,17,17,18,18,22,22,23,23,24,24,25,25,26,26,27,27,29,29,30,30,31,31,32,32,33,33,34,34,35,35,36,36,37,37,40,40,41,41,42,42,44,44,45,45,46,46,47,47,48,48,50,50,51,51,52,52,53,53,54,54],"right_children":[2,4,6,8,10,12,14,16,18,20,22,24,26,28,30,32,34,36,38,-1,-1,-1,40,42,44,46,48,50,-1,52,54,56,58,60,62,64,66,68,-1,-1,70,72,74,-1,76,78,80,82,84,-1,86,88,90,92,94,-1,-1,-1,-1,-1,-1,-1,-1,-1,-1,-1,-1,-1,-1,-1,-1,-1,-1,-1,-1,-1,-1,-1,-1,-1,-1,-1,-1,-1,-1,-1,-1,-1,-1,-1,-1,-1,-1,-1,-1],"split_conditions":[8.8875E-1,8.1374997E-1,1.5408671E1,2.167487E1,1E-1,6.4387493E0,1.5509274E1,9E-1,5.2E0,1.5192682E1,8.759178E0,2.4254907E2,9.83268E0,7.0999994E0,3.4791748E2,1.503835E1,-1.1758333E0,2.1669365E2,8.699999E0,8.807545E0,1.2136837E0,-6.02823E-1,1.0805999E1,1.6158334E0,2.4758636E2,2.1567917E1,1.5065833E1,7.8700004E0,4.4367373E-1,3.44833E2,1.3561667E1,1.0464798E1,9.381399E1,8.8055374E1,2.8041664E-1,-1.005E0,-1.005E0,3.5124996E-1,-6.1324455E-2,3.1205368E0,2.068356E1,1.3089354E1,5.8387504E0,-2.2247837E0,2.5313916E2,1.2611668E1,9.339208E0,4.768867E1,1.5281989E1,-2.7329056E0,8.161667E0,1.8692286E1,4.9824996E0,1.30125E0,1E-1,1.1745018E0,-5.95146E-1,6.536438E0,1.0691545E0,-3.263248E0,3.9773792E-1,6.4726715E0,-1.9269477E-1,-7.8784984E-1,3.6318055E-1,-5.2690316E-2,-1.1546704E0,2.1175928E0,5.668917E-1,-6.550355E-2,4.8321804E-1,1.041E0,-3.0166852E0,1.8726759E0,5.5192347E0,1.624832E0,-6.6188836E-1,-1.5226219E0,-6.436012E-1,7.783176E-1,-1.616672E-1,-9.3266886E-1,6.3911015E-1,-1.8473816E-1,1.0692338E0,7.5690967E-1,-1.4578872E0,1.5002563E-2,-1.8102612E-1,-1.0106008E0,2.3536491E0,-1.6793711E-1,-1.2297442E0,-7.2821146E-1,1.1710977E-2],"split_indices":[0,0,2,2,1,0,2,1,1,2,2,3,2,1,3,2,0,3,1,0,0,0,2,0,3,0,0,0,0,3,0,2,3,3,0,0,0,0,0,0,2,2,0,0,3,0,2,3,2,0,0,2,0,0,1,0,0,0,0,0,0,0,0,0,0,0,0,0,0,0,0,0,0,0,0,0,0,0,0,0,0,0,0,0,0,0,0,0,0,0,0,0,0,0,0],"split_type":[0,0,0,0,0,0,0,0,0,0,0,0,0,0,0,0,0,0,0,0,0,0,0,0,0,0,0,0,0,0,0,0,0,0,0,0,0,0,0,0,0,0,0,0,0,0,0,0,0,0,0,0,0,0,0,0,0,0,0,0,0,0,0,0,0,0,0,0,0,0,0,0,0,0,0,0,0,0,0,0,0,0,0,0,0,0,0,0,0,0,0,0,0,0,0],"sum_hessian":[1.798E3,1.48E2,1.65E3,1.41E2,7E0,3.98E2,1.252E3,1.14E2,2.7E1,2E0,5E0,8E1,3.18E2,1.4E1,1.238E3,9.3E1,2.1E1,2.4E1,3E0,1E0,1E0,1E0,4E0,6.1E1,1.9E1,3.5E1,2.83E2,1.3E1,1E0,1.221E3,1.7E1,6.1E1,3.2E1,8E0,1.3E1,1.5E1,9E0,2E0,1E0,1E0,3E0,1.2E1,4.9E1,2E0,1.7E1,2.8E1,7E0,1.25E2,1.58E2,5E0,8E0,1.216E3,5E0,9E0,8E0,1.9E1,4.2E1,2E0,3E1,1E0,7E0,7E0,6E0,8E0,7E0,1E0,8E0,1E0,1E0,1E0,2E0,6E0,6E0,4.4E1,5E0,2E0,1.5E1,9E0,1.9E1,3E0,4E0,1.6E1,1.09E2,1.53E2,5E0,1E0,7E0,3.51E2,8.65E2,1E0,4E0,1E0,8E0,6E0,2E0],"tree_param":{"num_deleted":"0","num_feature":"4","num_nodes":"95","size_leaf_vector":"1"}},{"base_weights":[5.0913643E-2,1.0130526E0,-3.2639137E-1,2.3246264E0,1.4393178E-1,-3.9183507E0,-2.8401E-1,1.627064E0,7.9579988E0,-6.9875426E0,4.0846652E-1,-1.1522725E0,-5.6343727E0,7.688441E-2,-5.9218925E-1,2.289731E0,-7.112767E0,1.7430313E1,4.8846893E0,8.978694E-1,-8.284876E0,1.1278138E1,1.0616257E-1,-9.084296E-1,-3.3495173E-1,-2.2432146E0,-1.0399914E0,1.8387394E0,-1.3348253E-1,-8.859104E-1,-2.7828804E-1,1.2050353E0,7.7089124E0,-5.3612633E0,-3.5321226E0,5.895401E0,1.2819324E0,-8.4700656E-1,7.1543417E0,-2.5973208E0,-7.393713E-1,1.4914604E1,3.913021E0,4.0254268E-1,-2.1285279E0,-4.5637506E-1,6.3851E-1,3.024905E-1,9.073507E0,-6.310165E0,-5.0397746E-2,-8.006937E-1,-2.5381312E0,8.50074E-1,-5.530791E-1,2.6347464E-1,2.9950013E0,-1.3995866E0,2.8141286E0,1.4944878E0,-1.464498E0,-3.1883687E-1,-8.3088115E-2,2.3942757E0,-4.146875E-1,3.5418093E-1,5.4158864E0,1.556067E0,1.3712311E-2,3.22176E-1,-1.21276625E-1,-7.112116E-1,8.4143974E-2,2.5282422E-1,3.8696767E-3,4.54913E-1,-1.0647564E0,4.4593306E0,-1.4330177E0,-3.204125E0,-1.0871173E-1,2.7203236E0,-3.087165E-2,-7.584219E-1,-2.1728702E-1,-3.144069E-1,-8.7480265E-1,1.1361911E-1,1.1379508E0,-3.246786E-1,-5.133376E-2],"categories":[],"categories_nodes":[],"categories_segments":[],"categories_sizes":[],"default_left":[0,0,0,0,0,0,0,0,0,0,0,0,0,0,0,0,0,0,0,0,0,0,0,0,0,0,0,0,0,0,0,0,0,0,0,0,0,0,0,0,0,0,0,0,0,0,0,0,0,0,0,0,0,0,0,0,0,0,0,0,0,0,0,0,0,0,0,0,0,0,0,0,0,0,0,0,0,0,0,0,0,0,0,0,0,0,0,0,0,0,0],"id":7,"left_children":[1,3,5,7,9,11,13,15,17,19,21,23,25,27,29,31,33,35,37,-1,39,41,43,-1,45,-1,-1,47,49,51,53,55,57,-1,59,-1,-1,61,63,-1,-1,65,67,69,71,-1,73,75,77,79,81,83,85,87,89,-1,-1,-1,-1,-1,-1,-1,-1,-1,-1,-1,-1,-1,-1,-1,-1,-1,-1,-1,-1,-1,-1,-1,-1,-1,-1,-1,-1,-1,-1,-1,-1,-1,-1,-1,-1],"loss_changes":[6.534033E2,5.7760297E2,1.9572336E2,7.808369E2,5.801301E2,6.470744E1,1.4229611E2,1.0645659E3,5.553081E2,1.6722333E2,9.714423E2,9.717796E0,1.0035004E1,2.1892072E2,6.3371063E1,9.8411993E2,4.3765045E2,6.2140137E1,2.4022098E2,0E0,3.6395264E-1,1.559029E2,1.9226666E2,0E0,7.9002295E0,0E0,0E0,6.9746277E2,2.7064542E2,4.809137E1,1.0434155E2,3.9857776E2,6.2290515E2,0E0,1.5070442E2,0E0,0E0,4.4368696E-1,1.0276245E2,0E0,0E0,1.9419702E2,1.9468716E1,1.3910062E2,2.0500809E1,0E0,5.002222E-1,2.5318336E2,9.532661E2,1.7808316E2,2.508527E2,4.304149E1,6.5162964E0,9.011923E1,5.438994E1,0E0,0E0,0E0,0E0,0E0,0E0,0E0,0E0,0E0,0E0,0E0,0E0,0E0,0E0,0E0,0E0,0E0,0E0,0E0,0E0,0E0,0E0,0E0,0E0,0E0,0E0,0E0,0E0,0E0,0E0,0E0,0E0,0E0,0E0,0E0,0E0],"parents":[2147483647,0,0,1,1,2,2,3,3,4,4,5,5,6,6,7,7,8,8,9,9,10,10,11,11,12,12,13,13,14,14,15,15,16,16,17,17,18,18,20,20,21,21,22,22,24,24,27,27,28,28,29,29,30,30,31,31,32,32,34,34,37,37,38,38,41,41,42,42,43,43,44,44,46,46,47,47,48,48,49,49,50,50,51,51,52,52,53,53,54,54],"right_children":[2,4,6,8,10,12,14,16,18,20,22,24,26,28,30,32,34,36,38,-1,40,42,44,-1,46,-1,-1,48,50,52,54,56,58,-1,60,-1,-1,62,64,-1,-1,66,68,70,72,-1,74,76,78,80,82,84,86,88,90,-1,-1,-1,-1,-1,-1,-1,-1,-1,-1,-1,-1,-1,-1,-1,-1,-1,-1,-1,-1,-1,-1,-1,-1,-1,-1,-1,-1,-1,-1,-1,-1,-1,-1,-1,-1],"split_conditions":[5.9929166E0,1.7106628E1,6.1450005E0,1.623596E1,1.7581125E1,2.2160498E2,1.4284583E1,1.57908325E1,1.07928E2,-1.005E0,1.781909E1,1.9373219E1,2.1758419E1,1.257426E1,2E-1,9E-1,1.2816164E2,7E-1,2.0533333E0,8.978694E-1,1.7551615E1,2.469011E2,2.9243872E2,-9.084296E-1,6.078333E0,-2.2432146E0,-1.0399914E0,1.210157E1,1.2979984E1,3.3191425E2,1.2149117E2,5.8387504E0,-1.8695832E0,-5.3612633E0,-2.9070835E0,5.895401E0,1.2819324E0,1.30125E0,3.031684E2,-2.5973208E0,-7.393713E-1,5.967863E1,-3.8625E-1,1.0000001E0,4.9824996E0,-4.5637506E-1,2.1210367E2,3E-1,9.653334E0,1.498816E2,1.3004922E1,1.4940835E1,1.632E1,1.1104552E2,2.469011E2,2.6347464E-1,2.9950013E0,-1.3995866E0,2.8141286E0,1.4944878E0,-1.464498E0,-3.1883687E-1,-8.3088115E-2,2.3942757E0,-4.146875E-1,3.5418093E-1,5.4158864E0,1.556067E0,1.3712311E-2,3.22176E-1,-1.21276625E-1,-7.112116E-1,8.4143974E-2,2.5282422E-1,3.8696767E-3,4.54913E-1,-1.0647564E0,4.4593306E0,-1.4330177E0,-3.204125E0,-1.0871173E-1,2.7203236E0,-3.087165E-2,-7.584219E-1,-2.1728702E-1,-3.144069E-1,-8.7480265E-1,1.1361911E-1,1.1379508E0,-3.246786E-1,-5.133376E-2],"split_indices":[0,2,0,2,2,3,0,2,3,0,2,2,2,2,1,1,3,1,0,0,2,3,3,0,0,0,0,2,2,3,3,0,0,0,0,0,0,0,3,0,0,3,0,1,0,0,3,1,0,3,2,0,0,3,3,0,0,0,0,0,0,0,0,0,0,0,0,0,0,0,0,0,0,0,0,0,0,0,0,0,0,0,0,0,0,0,0,0,0,0,0],"split_type":[0,0,0,0,0,0,0,0,0,0,0,0,0,0,0,0,0,0,0,0,0,0,0,0,0,0,0,0,0,0,0,0,0,0,0,0,0,0,0,0,0,0,0,0,0,0,0,0,0,0,0,0,0,0,0,0,0,0,0,0,0,0,0,0,0,0,0,0,0,0,0,0,0,0,0,0,0,0,0,0,0,0,0,0,0,0,0,0,0,0,0],"sum_hessian":[1.798E3,5.06E2,1.292E3,2.01E2,3.05E2,1.4E1,1.278E3,1.8E2,2.1E1,1E1,2.95E2,6E0,8E0,5.89E2,6.89E2,1.68E2,1.2E1,4E0,1.7E1,1E0,9E0,7E0,2.88E2,1E0,5E0,3E0,5E0,6.2E1,5.27E2,3.55E2,3.34E2,1.41E2,2.7E1,2E0,1E1,3E0,1E0,5E0,1.2E1,8E0,1E0,4E0,3E0,2.55E2,3.3E1,2E0,3E0,5.2E1,1E1,6E0,5.21E2,3.39E2,1.6E1,6.5E1,2.69E2,1.37E2,4E0,3E0,2.4E1,1E0,9E0,3E0,2E0,1.1E1,1E0,1E0,3E0,2E0,1E0,1.39E2,1.16E2,3E1,3E0,2E0,1E0,4E1,1.2E1,7E0,3E0,3E0,3E0,2E0,5.19E2,1.3E1,3.26E2,4E0,1.2E1,5.7E1,8E0,1.12E2,1.57E2],"tree_param":{"num_deleted":"0","num_feature":"4","num_nodes":"91","size_leaf_vector":"1"}},{"base_weights":[4.046668E-2,1.6058542E0,-1.0083144E-1,1.171545E0,9.114111E0,9.727541E-1,-2.2634156E-1,-4.7022963E0,1.5573138E0,1.8733768E1,2.7852628E0,6.7777586E0,4.9798512E-1,-2.3067696E0,-1.4436802E-1,-5.4799795E0,5.1242876E0,6.833999E0,9.8227924E-1,7.446892E0,9.8330474E-1,4.7316217E0,-7.383035E-1,-5.0741863E0,1.2609088E1,-9.955253E-1,1.7174039E0,-5.684781E0,2.1986775E-1,4.0588603E0,-2.2238058E-1,-1.5777035E0,8.252749E0,1.0043762E1,-2.898909E0,-5.8669105E0,1.3251241E0,2.612935E0,5.0230664E-1,-5.5192083E-1,2.1968423E-1,-1.5371131E0,-2.0759594E0,6.7713966E0,3.8660843E0,2.2785077E0,-1.220325E0,4.700953E0,-1.2470453E-1,-9.67057E0,-1.5682998E0,5.170008E0,-1.8518519E0,7.63924E0,-2.4336715E0,-4.6946654E0,-1.7378372E-1,3.257703E0,8.6867183E-1,-1.288539E-1,3.3765552E0,-1.0083647E0,-2.2679844E-1,-2.1063997E-1,-2.027832E0,2.9283037E0,2.5841105E-1,-1.0400448E-1,3.3004248E-1,-5.6196463E-1,-1.2973624E-1,3.941803E-2,2.2670934E0,-9.594457E-1,-6.800656E-2,7.6327205E-1,3.1227388E0,2.4864997E-1,-5.6475425E-1,-7.369444E-1,-3.5406973E0,-1.096784E0,1.2128676E0,3.7461892E-1,2.6524625E0,-1.1551533E0,-2.9151452E-1,-1.334032E0,2.8641481E0,3.9177403E-1,-1.0595422E0,-2.407714E0,-4.746664E-1,1.5054089E-1,-1.0759956E-1],"categories":[],"categories_nodes":[],"categories_segments":[],"categories_sizes":[],"default_left":[0,0,0,0,0,0,0,0,0,0,0,0,0,0,0,0,0,0,0,0,0,0,0,0,0,0,0,0,0,0,0,0,0,0,0,0,0,0,0,0,0,0,0,0,0,0,0,0,0,0,0,0,0,0,0,0,0,0,0,0,0,0,0,0,0,0,0,0,0,0,0,0,0,0,0,0,0,0,0,0,0,0,0,0,0,0,0,0,0,0,0,0,0,0,0],"id":8,"left_children":[1,3,5,7,9,11,13,15,17,19,21,23,25,27,29,-1,31,33,35,-1,-1,37,39,41,43,45,47,49,51,53,55,-1,57,59,61,63,65,-1,67,-1,-1,69,-1,-1,71,-1,73,75,77,79,81,83,85,87,89,91,93,-1,-1,-1,-1,-1,-1,-1,-1,-1,-1,-1,-1,-1,-1,-1,-1,-1,-1,-1,-1,-1,-1,-1,-1,-1,-1,-1,-1,-1,-1,-1,-1,-1,-1,-1,-1,-1,-1],"loss_changes":[3.9807608E2,4.7519724E2,2.2268558E2,3.2908716E2,4.3487238E2,4.7341907E2,2.518957E2,1.2932201E3,3.9988013E2,2.0098401E2,4.4642124E1,9.624445E2,2.9492526E2,4.7921042E2,4.6783875E2,0E0,2.3830382E2,4.352403E2,2.94256E2,0E0,0E0,6.292462E1,6.206451E0,2.2004868E1,6.96636E2,1.5024255E2,4.8973215E2,3.7861194E2,3.479991E2,6.2298035E2,3.0324146E2,0E0,3.836795E1,1.3170978E2,1.421669E0,2.2912231E1,4.4931686E2,0E0,1.9040632E0,0E0,0E0,3.0375576E-1,0E0,0E0,8.1713135E1,0E0,1.407724E2,3.9208722E2,9.542401E1,1.5555188E2,1.6706503E2,1.3293033E2,3.847664E1,4.344596E2,4.5677933E1,1.4281708E2,1.7317125E2,0E0,0E0,0E0,0E0,0E0,0E0,0E0,0E0,0E0,0E0,0E0,0E0,0E0,0E0,0E0,0E0,0E0,0E0,0E0,0E0,0E0,0E0,0E0,0E0,0E0,0E0,0E0,0E0,0E0,0E0,0E0,0E0,0E0,0E0,0E0,0E0,0E0,0E0],"parents":[2147483647,0,0,1,1,2,2,3,3,4,4,5,5,6,6,7,7,8,8,9,9,10,10,11,11,12,12,13,13,14,14,16,16,17,17,18,18,21,21,22,22,23,23,24,24,25,25,26,26,27,27,28,28,29,29,30,30,32,32,33,33,34,34,35,35,36,36,38,38,41,41,44,44,46,46,47,47,48,48,49,49,50,50,51,51,52,52,53,53,54,54,55,55,56,56],"right_children":[2,4,6,8,10,12,14,16,18,20,22,24,26,28,30,-1,32,34,36,-1,-1,38,40,42,44,46,48,50,52,54,56,-1,58,60,62,64,66,-1,68,-1,-1,70,-1,-1,72,-1,74,76,78,80,82,84,86,88,90,92,94,-1,-1,-1,-1,-1,-1,-1,-1,-1,-1,-1,-1,-1,-1,-1,-1,-1,-1,-1,-1,-1,-1,-1,-1,-1,-1,-1,-1,-1,-1,-1,-1,-1,-1,-1,-1,-1,-1],"split_conditions":[8.8875E-1,8.1374997E-1,1.257426E1,9.422101E0,1E-1,2.7825E0,1.8949996E0,1.1980086E2,1.0464798E1,1.5192682E1,1.537578E2,8.581802E1,1.0538843E1,2.1210367E2,2.4679167E0,-5.4799795E0,-3.9050007E0,3E-1,1.1212135E1,7.446892E0,9.8330474E-1,2E-1,8.759178E0,2.7066473E1,1.8487732E2,6.3802752E0,1.1007501E1,1.5876775E1,2.4384026E2,2.4827098E2,2.7387497E0,-1.5777035E0,2.8448862E2,9.659814E0,-1.1758333E0,-3.9050007E0,1.1525623E1,2.612935E0,4E-1,-5.5192083E-1,2.1968423E-1,1.1054167E0,-2.0759594E0,6.7713966E0,1.1054167E0,2.2785077E0,1.0809585E1,1.210157E1,2E-1,4.349596E1,7E-1,2.3003151E2,8E-1,5.690049E1,2.5763254E2,2.3003151E2,1.2320935E2,3.257703E0,8.6867183E-1,-1.288539E-1,3.3765552E0,-1.0083647E0,-2.2679844E-1,-2.1063997E-1,-2.027832E0,2.9283037E0,2.5841105E-1,-1.0400448E-1,3.3004248E-1,-5.6196463E-1,-1.2973624E-1,3.941803E-2,2.2670934E0,-9.594457E-1,-6.800656E-2,7.6327205E-1,3.1227388E0,2.4864997E-1,-5.6475425E-1,-7.369444E-1,-3.5406973E0,-1.096784E0,1.2128676E0,3.7461892E-1,2.6524625E0,-1.1551533E0,-2.9151452E-1,-1.334032E0,2.8641481E0,3.9177403E-1,-1.0595422E0,-2.407714E0,-4.746664E-1,1.5054089E-1,-1.0759956E-1],"split_indices":[0,0,2,2,1,0,0,3,2,2,3,3,2,3,0,0,0,1,2,0,0,1,2,3,3,3,0,2,3,3,0,0,3,2,0,0,2,0,1,0,0,0,0,0,0,0,0,2,1,3,1,3,1,3,3,3,3,0,0,0,0,0,0,0,0,0,0,0,0,0,0,0,0,0,0,0,0,0,0,0,0,0,0,0,0,0,0,0,0,0,0,0,0,0,0],"split_type":[0,0,0,0,0,0,0,0,0,0,0,0,0,0,0,0,0,0,0,0,0,0,0,0,0,0,0,0,0,0,0,0,0,0,0,0,0,0,0,0,0,0,0,0,0,0,0,0,0,0,0,0,0,0,0,0,0,0,0,0,0,0,0,0,0,0,0,0,0,0,0,0,0,0,0,0,0,0,0,0,0,0,0,0,0,0,0,0,0,0,0,0,0,0,0],"sum_hessian":[1.798E3,1.48E2,1.65E3,1.41E2,7E0,1.72E2,1.478E3,8E0,1.33E2,2E0,5E0,1.2E1,1.6E2,5.5E1,1.423E3,3E0,5E0,1.2E1,1.21E2,1E0,1E0,3E0,2E0,4E0,8E0,7.2E1,8.8E1,2.3E1,3.2E1,2.5E1,1.398E3,1E0,4E0,9E0,3E0,5E0,1.16E2,1E0,2E0,1E0,1E0,2E0,2E0,3E0,5E0,1E0,7.1E1,3.3E1,5.5E1,1.1E1,1.2E1,9E0,2.3E1,1.6E1,9E0,1.4E1,1.384E3,2E0,2E0,1E0,8E0,2E0,1E0,1E0,4E0,5E0,1.11E2,1E0,1E0,1E0,1E0,3E0,2E0,2.3E1,4.8E1,2.5E1,8E0,3.6E1,1.9E1,3E0,8E0,9E0,3E0,5E0,4E0,6E0,1.7E1,2E0,1.4E1,2E0,7E0,6E0,8E0,2.97E2,1.087E3],"tree_param":{"num_deleted":"0","num_feature":"4","num_nodes":"95","size_leaf_vector":"1"}},{"base_weights":[3.8076147E-2,6.5338033E-1,-2.0322107E-1,1.6889535E0,1.7537722E-1,-1.3255717E0,-1.1915564E-1,-3.785191E-1,3.5640302E0,-3.183826E0,3.0482444E-1,1.1387017E0,-1.9574553E0,4.1106597E-1,-3.3432245E-1,6.252335E-1,-9.114039E0,1.9971175E0,9.198425E0,2.628364E0,-5.1903195E0,1.2144344E0,-3.4314623E-1,2.0274312E0,8.006005E-2,-2.681603E0,3.6396545E-1,-3.3140257E-1,1.6137888E0,-3.0501804E0,-2.921444E-1,-1.0145197E0,5.080072E0,-4.5249467E0,-2.515938E0,-8.3814603E-1,8.247606E0,1.748631E1,8.1948626E-1,-6.1270434E-1,2.496075E0,-2.3982754E-1,-1.6768116E0,2.0555763E0,-7.308294E-1,-3.8852286E0,1.01563744E-1,-5.921122E-1,1.6252224E0,-3.6312435E0,-1.4827251E0,3.1919026E0,-8.663513E-1,-1.0245923E0,1.5746073E0,5.1388984E0,6.6740334E-1,-3.4667826E-1,-4.2132173E0,-8.295624E-1,-7.758257E-2,6.8712115E-2,-1.7011287E0,3.0171745E0,-4.7027874E-1,-9.342628E-1,-1.8428136E-2,-9.623431E-1,1.6818577E0,4.3589673E0,9.791706E-1,5.989554E0,-3.5169613E-1,1.7133603E0,-6.278546E-1,4.0499535E-1,1.6762085E0,3.6773312E-1,-4.3251556E-1,-1.5577384E0,4.7935632E-1,-3.5886135E-2,1.9165158E0,2.0014848E-1,-4.9370292E-1,-1.5905197E0,-7.592738E-1,1.16797045E-1,-7.490133E-1,-4.3643484E-1,1.3647106E-1,-2.1922417E0,-2.3194548E-1,2.4592285E0,1.5145762E-1,4.6954503E0,9.7539794E-1,5.125543E-1,-2.0276232E-1,-3.4358013E-1,1.7024097E-1,-1.377538E0,-1.7769141E-1,-6.037514E-1,-5.862183E-2,9.2794424E-1,-5.5699866E-2],"categories":[],"categories_nodes":[],"categories_segments":[],"categories_sizes":[],"default_left":[0,0,0,0,0,0,0,0,0,0,0,0,0,0,0,0,0,0,0,0,0,0,0,0,0,0,0,0,0,0,0,0,0,0,0,0,0,0,0,0,0,0,0,0,0,0,0,0,0,0,0,0,0,0,0,0,0,0,0,0,0,0,0,0,0,0,0,0,0,0,0,0,0,0,0,0,0,0,0,0,0,0,0,0,0,0,0,0,0,0,0,0,0,0,0,0,0,0,0,0,0,0,0,0,0,0,0],"id":9,"left_children":[1,3,5,7,9,11,13,15,17,19,21,23,25,27,29,31,33,35,37,39,41,43,45,-1,47,49,51,53,55,57,59,61,63,-1,65,67,69,71,73,-1,-1,-1,-1,75,77,79,81,83,-1,85,87,-1,89,91,93,95,97,99,101,103,105,-1,-1,-1,-1,-1,-1,-1,-1,-1,-1,-1,-1,-1,-1,-1,-1,-1,-1,-1,-1,-1,-1,-1,-1,-1,-1,-1,-1,-1,-1,-1,-1,-1,-1,-1,-1,-1,-1,-1,-1,-1,-1,-1,-1,-1,-1],"loss_changes":[2.6723242E2,2.5067244E2,1.2183774E2,6.2161615E2,1.5229466E2,1.4237102E2,1.3749709E2,6.808576E2,7.232324E2,1.6524959E2,1.9845534E2,1.12488686E2,1.2201172E2,3.112932E2,9.7277985E1,5.164923E2,2.7713037E2,1.1942723E3,1.2356564E3,1.23333466E2,1.305368E1,2.3057631E2,3.1070886E2,0E0,6.4197205E1,5.723352E1,2.367805E2,2.8699823E2,4.4027322E2,3.941491E1,9.737208E1,3.0237372E2,6.444114E2,0E0,7.151016E0,7.357167E2,6.100658E2,4.3967627E2,1.5441579E2,0E0,0E0,0E0,0E0,2.3667307E2,6.1577213E1,1.6598538E2,2.4550021E2,2.2325546E1,0E0,4.1724487E1,5.0326035E1,0E0,1.387874E1,2.455339E2,4.067771E2,5.0472412E2,1.4939586E2,4.3000464E0,9.617371E0,1.8039775E2,2.0791025E2,0E0,0E0,0E0,0E0,0E0,0E0,0E0,0E0,0E0,0E0,0E0,0E0,0E0,0E0,0E0,0E0,0E0,0E0,0E0,0E0,0E0,0E0,0E0,0E0,0E0,0E0,0E0,0E0,0E0,0E0,0E0,0E0,0E0,0E0,0E0,0E0,0E0,0E0,0E0,0E0,0E0,0E0,0E0,0E0,0E0,0E0],"parents":[2147483647,0,0,1,1,2,2,3,3,4,4,5,5,6,6,7,7,8,8,9,9,10,10,11,11,12,12,13,13,14,14,15,15,16,16,17,17,18,18,19,19,20,20,21,21,22,22,24,24,25,25,26,26,27,27,28,28,29,29,30,30,31,31,32,32,34,34,35,35,36,36,37,37,38,38,43,43,44,44,45,45,46,46,47,47,49,49,50,50,52,52,53,53,54,54,55,55,56,56,57,57,58,58,59,59,60,60],"right_children":[2,4,6,8,10,12,14,16,18,20,22,24,26,28,30,32,34,36,38,40,42,44,46,-1,48,50,52,54,56,58,60,62,64,-1,66,68,70,72,74,-1,-1,-1,-1,76,78,80,82,84,-1,86,88,-1,90,92,94,96,98,100,102,104,106,-1,-1,-1,-1,-1,-1,-1,-1,-1,-1,-1,-1,-1,-1,-1,-1,-1,-1,-1,-1,-1,-1,-1,-1,-1,-1,-1,-1,-1,-1,-1,-1,-1,-1,-1,-1,-1,-1,-1,-1,-1,-1,-1,-1,-1,-1],"split_conditions":[5.9929166E0,1.537578E2,4.45767E1,8.8055374E1,1.6461786E2,1.2371645E1,1.7732928E2,7.5349106E1,9E-1,-6.9458336E-1,1.8514643E1,9.949167E0,1.8511667E1,1E-1,6.1450005E0,5.690049E1,4.679167E-1,3.5637496E0,1.9011953E1,-3.9050007E0,8.39657E0,2.8448862E2,1.9469976E1,2.0274312E0,3.6999998E0,1.8218275E1,1.8570002E1,1.3264227E2,9.653334E0,2.2160498E2,2.3003151E2,4.768867E1,1.8161278E1,-4.5249467E0,3.3741667E0,1.9469976E1,1.07928E2,1.4494957E2,1.9000002E0,-6.1270434E-1,2.496075E0,-2.3982754E-1,-1.6768116E0,1.7551615E1,-1.5820833E0,2.9376584E2,5.915833E0,1.4190833E1,1.6252224E0,9.26375E0,2.2319998E1,3.1919026E0,3E-1,6.7845836E0,1.3864043E2,1.2245293E1,1.2320935E2,6.078333E0,6E0,1.0663751E1,2.3256976E2,6.8712115E-2,-1.7011287E0,3.0171745E0,-4.7027874E-1,-9.342628E-1,-1.8428136E-2,-9.623431E-1,1.6818577E0,4.3589673E0,9.791706E-1,5.989554E0,-3.5169613E-1,1.7133603E0,-6.278546E-1,4.0499535E-1,1.6762085E0,3.6773312E-1,-4.3251556E-1,-1.5577384E0,4.7935632E-1,-3.5886135E-2,1.9165158E0,2.0014848E-1,-4.9370292E-1,-1.5905197E0,-7.592738E-1,1.16797045E-1,-7.490133E-1,-4.3643484E-1,1.3647106E-1,-2.1922417E0,-2.3194548E-1,2.4592285E0,1.5145762E-1,4.6954503E0,9.7539794E-1,5.125543E-1,-2.0276232E-1,-3.4358013E-1,1.7024097E-1,-1.377538E0,-1.7769141E-1,-6.037514E-1,-5.862183E-2,9.2794424E-1,-5.5699866E-2],"split_indices":[0,3,3,3,3,2,3,3,1,0,2,0,0,1,0,3,0,0,2,0,2,3,2,0,1,2,0,3,0,3,3,3,2,0,0,2,3,3,1,0,0,0,0,2,0,3,0,0,0,0,2,0,1,0,3,2,3,0,1,0,3,0,0,0,0,0,0,0,0,0,0,0,0,0,0,0,0,0,0,0,0,0,0,0,0,0,0,0,0,0,0,0,0,0,0,0,0,0,0,0,0,0,0,0,0,0,0],"split_type":[0,0,0,0,0,0,0,0,0,0,0,0,0,0,0,0,0,0,0,0,0,0,0,0,0,0,0,0,0,0,0,0,0,0,0,0,0,0,0,0,0,0,0,0,0,0,0,0,0,0,0,0,0,0,0,0,0,0,0,0,0,0,0,0,0,0,0,0,0,0,0,0,0,0,0,0,0,0,0,0,0,0,0,0,0,0,0,0,0,0,0,0,0,0,0,0,0,0,0,0,0,0,0,0,0,0,0],"sum_hessian":[1.798E3,5.06E2,1.292E3,1.59E2,3.47E2,8.9E1,1.203E3,7.6E1,8.3E1,1.2E1,3.35E2,1.8E1,7.1E1,3.47E2,8.56E2,6.9E1,7E0,6.6E1,1.7E1,3E0,9E0,1.39E2,1.96E2,2E0,1.6E1,5.4E1,1.7E1,2.15E2,1.32E2,1.2E1,8.44E2,5.1E1,1.8E1,3E0,4E0,4.6E1,2E1,8E0,9E0,2E0,1E0,1E0,8E0,9.7E1,4.2E1,2.1E1,1.75E2,1.5E1,1E0,2.9E1,2.5E1,1E0,1.6E1,1.58E2,5.7E1,2.7E1,1.05E2,4E0,8E0,2.4E2,6.04E2,4.1E1,1E1,1E1,8E0,3E0,1E0,3.4E1,1.2E1,8E0,1.2E1,7E0,1E0,3E0,6E0,8.2E1,1.5E1,1.1E1,3.1E1,1.7E1,4E0,1.7E2,5E0,7E0,8E0,1E1,1.9E1,9E0,1.6E1,1.1E1,5E0,5E0,1.53E2,7E0,5E1,3E0,2.4E1,5.9E1,4.6E1,2E0,2E0,7E0,1E0,8.3E1,1.57E2,1.9E1,5.85E2],"tree_param":{"num_deleted":"0","num_feature":"4","num_nodes":"107","size_leaf_vector":"1"}},{"base_weights":[3.7170675E-2,4.4244975E-1,-2.2258171E-1,8.250269E-1,-3.847344E-1,-1.4142391E-1,-2.0737865E0,6.029362E-1,2.403321E0,-4.4375855E-1,1.907794E0,3.4406063E-1,-3.0368817E-1,-1.7796193E0,-1.6666493E0,2.1337645E0,3.1903228E-1,2.1013599E-2,4.8670526E0,-5.527506E-1,2.9828196E0,3.3649538E0,1.8685558E-1,-2.7673194E0,-2.5236803E-1,-2.1310847E0,-7.497217E-1,1.3337235E0,5.547015E0,-5.3626995E0,4.6422243E-1,-4.4382806E0,1.7650411E0,8.340038E0,1.5239986E0,-2.0695949E0,-2.6791206E-1,5.638661E0,-2.437856E0,-2.3868008E0,7.2581506E0,4.120376E-2,1.7077062E0,7.8743804E-1,-4.0178585E0,-2.7979574E0,-2.1538654E-1,-7.8241676E-1,-1.1568515E0,1.8023237E0,-1.243037E0,7.4841883E-3,1.2635353E0,-3.0297613E0,1.3390365E-1,2.2944523E-1,-4.6168354E-1,-1.6804636E0,7.3017544E-1,1.3228015E0,-6.3404363E-1,3.252905E0,4.9982312E-1,-4.4229686E-1,1.4119833E0,5.895257E-1,-6.7542183E-1,-2.2093229E-2,-6.872944E-1,1.7801529E-1,2.0254903E0,-9.541778E-1,-1.4285739E-1,-1.7441084E0,2.21215E0,1.1403819E-1,2.8462412E0,-1.1459717E0,4.305863E-2,-5.602787E-1,8.6073726E-1,-1.2863108E0,3.1632004E0,-1.767826E0,-7.03145E-1,-1.3943695E-1,-1.3994397E0,-2.7195096E-1,-2.4406675E-2,7.004418E-3,-7.7332824E-1,8.0186737E-1,9.178305E-3,-7.882763E-1,1.5506493E-1],"categories":[],"categories_nodes":[],"categories_segments":[],"categories_sizes":[],"default_left":[0,0,0,0,0,0,0,0,0,0,0,0,0,0,0,0,0,0,0,0,0,0,0,0,0,0,0,0,0,0,0,0,0,0,0,0,0,0,0,0,0,0,0,0,0,0,0,0,0,0,0,0,0,0,0,0,0,0,0,0,0,0,0,0,0,0,0,0,0,0,0,0,0,0,0,0,0,0,0,0,0,0,0,0,0,0,0,0,0,0,0,0,0,0,0],"id":10,"left_children":[1,3,5,7,9,11,13,15,17,19,-1,21,23,-1,25,27,29,31,33,35,37,39,41,43,45,47,49,51,-1,53,55,57,59,61,63,65,67,69,71,73,75,77,79,81,83,85,87,-1,89,91,93,-1,-1,-1,-1,-1,-1,-1,-1,-1,-1,-1,-1,-1,-1,-1,-1,-1,-1,-1,-1,-1,-1,-1,-1,-1,-1,-1,-1,-1,-1,-1,-1,-1,-1,-1,-1,-1,-1,-1,-1,-1,-1,-1,-1],"loss_changes":[1.8948317E2,2.2279005E2,1.6451965E2,1.6715323E2,9.1589745E1,8.297766E1,6.2372345E1,1.831585E2,3.4619028E2,8.455907E1,0E0,1.2474474E2,9.905797E1,0E0,1.6713982E1,8.389955E2,2.9781494E2,2.4892482E2,3.2399078E2,9.276955E1,1.1452142E2,3.0842902E2,5.5751328E1,7.4289604E1,7.226146E1,9.99395E0,2.2383764E1,2.4096608E2,0E0,2.5213885E2,2.1192677E2,8.558136E1,2.4520609E2,2.1580145E2,1.5961896E2,2.9364899E1,7.1753494E1,2.4069977E1,2.85643E0,2.4356116E2,1.1906006E2,9.181359E1,9.671159E1,2.9278918E2,2.3852295E1,4.5744034E1,7.069635E1,0E0,1.8506706E1,4.545455E0,3.547193E1,0E0,0E0,0E0,0E0,0E0,0E0,0E0,0E0,0E0,0E0,0E0,0E0,0E0,0E0,0E0,0E0,0E0,0E0,0E0,0E0,0E0,0E0,0E0,0E0,0E0,0E0,0E0,0E0,0E0,0E0,0E0,0E0,0E0,0E0,0E0,0E0,0E0,0E0,0E0,0E0,0E0,0E0,0E0,0E0],"parents":[2147483647,0,0,1,1,2,2,3,3,4,4,5,5,6,6,7,7,8,8,9,9,11,11,12,12,14,14,15,15,16,16,17,17,18,18,19,19,20,20,21,21,22,22,23,23,24,24,25,25,26,26,27,27,29,29,30,30,31,31,32,32,33,33,34,34,35,35,36,36,37,37,38,38,39,39,40,40,41,41,42,42,43,43,44,44,45,45,46,46,48,48,49,49,50,50],"right_children":[2,4,6,8,10,12,14,16,18,20,-1,22,24,-1,26,28,30,32,34,36,38,40,42,44,46,48,50,52,-1,54,56,58,60,62,64,66,68,70,72,74,76,78,80,82,84,86,88,-1,90,92,94,-1,-1,-1,-1,-1,-1,-1,-1,-1,-1,-1,-1,-1,-1,-1,-1,-1,-1,-1,-1,-1,-1,-1,-1,-1,-1,-1,-1,-1,-1,-1,-1,-1,-1,-1,-1,-1,-1,-1,-1,-1,-1,-1,-1],"split_conditions":[8.190834E0,2.3584808E1,3.3191425E2,6.9929166E0,2.4E1,1.5408671E1,9.415834E0,1.1792404E1,1.7227419E1,8.12E0,1.907794E0,9.145E0,1.55843E1,-1.7796193E0,1.7462782E1,1.6E0,1.2371645E1,7.5866666E0,1.9734436E1,2.51614E1,2.8594517E1,8.509583E0,4.2000003E0,1.123875E1,8.445001E0,1E-1,1.80036E1,1.0636766E1,5.547015E0,1.2816164E2,2.3999999E0,2E-1,1E-1,6E-1,7.0000005E-1,-1.5820833E0,2.9516315E2,2.3683512E1,1E-1,2.5575557E2,1.0538843E1,9.795E0,1.2245293E1,8.984584E0,1.3561667E1,8.245002E0,9.449316E1,-7.8241676E-1,1.6E0,1.3703335E1,1.5334583E1,7.4841883E-3,1.2635353E0,-3.0297613E0,1.3390365E-1,2.2944523E-1,-4.6168354E-1,-1.6804636E0,7.3017544E-1,1.3228015E0,-6.3404363E-1,3.252905E0,4.9982312E-1,-4.4229686E-1,1.4119833E0,5.895257E-1,-6.7542183E-1,-2.2093229E-2,-6.872944E-1,1.7801529E-1,2.0254903E0,-9.541778E-1,-1.4285739E-1,-1.7441084E0,2.21215E0,1.1403819E-1,2.8462412E0,-1.1459717E0,4.305863E-2,-5.602787E-1,8.6073726E-1,-1.2863108E0,3.1632004E0,-1.767826E0,-7.03145E-1,-1.3943695E-1,-1.3994397E0,-2.7195096E-1,-2.4406675E-2,7.004418E-3,-7.7332824E-1,8.0186737E-1,9.178305E-3,-7.882763E-1,1.5506493E-1],"split_indices":[0,2,3,0,1,2,0,2,2,0,0,0,2,0,2,1,2,0,2,2,2,0,1,0,0,1,2,2,0,3,1,1,1,1,1,0,3,2,1,3,2,0,2,0,0,0,3,0,1,0,0,0,0,0,0,0,0,0,0,0,0,0,0,0,0,0,0,0,0,0,0,0,0,0,0,0,0,0,0,0,0,0,0,0,0,0,0,0,0,0,0,0,0,0,0],"split_type":[0,0,0,0,0,0,0,0,0,0,0,0,0,0,0,0,0,0,0,0,0,0,0,0,0,0,0,0,0,0,0,0,0,0,0,0,0,0,0,0,0,0,0,0,0,0,0,0,0,0,0,0,0,0,0,0,0,0,0,0,0,0,0,0,0,0,0,0,0,0,0,0,0,0,0,0,0,0,0,0,0,0,0,0,0,0,0,0,0,0,0,0,0,0,0],"sum_hessian":[1.798E3,7.02E2,1.096E3,4.8E2,2.22E2,1.051E3,4.5E1,4.22E2,5.8E1,2.21E2,1E0,2.63E2,7.88E2,3E0,4.2E1,6.5E1,3.57E2,3E1,2.8E1,2.15E2,6E0,1.2E1,2.51E2,1.5E1,7.73E2,2.7E1,1.5E1,6.3E1,2E0,8E0,3.49E2,8E0,2.2E1,1.3E1,1.5E1,3.3E1,1.82E2,4E0,2E0,5E0,7E0,2.3E2,2.1E1,4E0,1.1E1,1E1,7.63E2,1.7E1,1E1,2E0,1.3E1,4.4E1,1.9E1,4E0,4E0,3.04E2,4.5E1,7E0,1E0,1.3E1,9E0,9E0,4E0,8E0,7E0,1E0,3.2E1,1.67E2,1.5E1,1E0,3E0,1E0,1E0,4E0,1E0,2E0,5E0,5E0,2.25E2,5E0,1.6E1,3E0,1E0,4E0,7E0,5E0,5E0,1.23E2,6.4E2,6E0,4E0,1E0,1E0,7E0,6E0],"tree_param":{"num_deleted":"0","num_feature":"4","num_nodes":"95","size_leaf_vector":"1"}},{"base_weights":[3.0141706E-2,2.3460108E-1,-2.988149E-1,1.4465462E0,1.14493154E-1,-3.1140992E-1,1.2568744E0,5.3462136E-1,1.06077175E1,5.0433937E-2,2.8640616E0,-3.3882457E-1,1.5839281E0,-1.2292814E0,1.9151096E0,1.602248E1,3.0714116E0,-2.8030164E0,1.0621676E-1,8.848256E0,2.3150717E-1,-1.7924322E0,-3.0557692E-1,3.6129904E0,1.9818857E-1,7.679085E-2,-1.0648359E1,4.7315063E0,1.0543781E-1,-5.017193E-1,6.2592897E0,2.9779527E0,-1.4422469E0,-5.719906E0,-1.6165052E-1,5.6020384E0,6.624063E-2,-1.1938442E0,1.1649459E1,-1.0775868E0,1.4266376E0,-2.1254249E0,4.3042004E-1,2.2397058E0,-3.3601195E-1,3.2755396E-1,1.2268269E0,-1.624503E0,9.509835E-1,-1.1279098E0,3.7943336E-1,-4.251976E0,-1.0722042E0,1.2166336E0,-3.6424807E-1,7.938419E-1,-2.128929E0,1.7373024E0,-6.383727E-1,2.5759513E0,-1.845714E0,-4.6457458E-1,4.966246E-2,1.4682646E0,5.0319896E0,-7.461221E-1,9.203698E-1,-6.7780256E-1,-5.7675865E-2,1.7027398E0,2.8140208E-1,-1.4916639E-1,-3.0132007E-2,1.0690227E-1,-6.6263986E-1],"categories":[],"categories_nodes":[],"categories_segments":[],"categories_sizes":[],"default_left":[0,0,0,0,0,0,0,0,0,0,0,0,0,0,0,0,0,0,0,0,0,0,0,0,0,0,0,0,0,0,0,0,0,0,0,0,0,0,0,0,0,0,0,0,0,0,0,0,0,0,0,0,0,0,0,0,0,0,0,0,0,0,0,0,0,0,0,0,0,0,0,0,0,0,0],"id":11,"left_children":[1,3,5,7,9,11,-1,13,15,17,19,21,23,25,27,29,31,33,35,37,39,41,43,45,47,49,51,-1,53,-1,-1,-1,-1,55,57,59,61,-1,63,65,-1,67,-1,69,71,-1,-1,73,-1,-1,-1,-1,-1,-1,-1,-1,-1,-1,-1,-1,-1,-1,-1,-1,-1,-1,-1,-1,-1,-1,-1,-1,-1,-1,-1],"loss_changes":[1.2106771E2,1.6141064E2,4.0311405E1,8.2975885E2,1.7792825E2,3.6337143E1,0E0,2.2637852E2,3.1805408E2,1.5772032E2,3.6028705E2,3.2316032E1,2.7401466E1,5.0519962E2,1.3022816E3,4.632704E2,3.1777472E2,1.4546227E2,2.1295926E2,2.9789044E2,1.0580314E2,1.9168758E1,5.2344772E1,3.395958E-1,4.3065754E1,1.7339008E2,7.402612E1,0E0,2.4990779E2,0E0,0E0,0E0,0E0,1.2242264E2,1.4107184E2,2.9839203E2,1.549973E2,0E0,1.25584595E2,8.943221E1,0E0,3.1900063E0,0E0,3.0458134E1,2.4976486E1,0E0,0E0,6.5740843E0,0E0,0E0,0E0,0E0,0E0,0E0,0E0,0E0,0E0,0E0,0E0,0E0,0E0,0E0,0E0,0E0,0E0,0E0,0E0,0E0,0E0,0E0,0E0,0E0,0E0,0E0,0E0],"parents":[2147483647,0,0,1,1,2,2,3,3,4,4,5,5,7,7,8,8,9,9,10,10,11,11,12,12,13,13,14,14,15,15,16,16,17,17,18,18,19,19,20,20,21,21,22,22,23,23,24,24,25,25,26,26,28,28,33,33,34,34,35,35,36,36,38,38,39,39,41,41,43,43,44,44,47,47],"right_children":[2,4,6,8,10,12,-1,14,16,18,20,22,24,26,28,30,32,34,36,38,40,42,44,46,48,50,52,-1,54,-1,-1,-1,-1,56,58,60,62,-1,64,66,-1,68,-1,70,72,-1,-1,74,-1,-1,-1,-1,-1,-1,-1,-1,-1,-1,-1,-1,-1,-1,-1,-1,-1,-1,-1,-1,-1,-1,-1,-1,-1,-1,-1],"split_conditions":[1.4284583E1,1.1620809E1,4.89E1,1.1480557E1,1.3847083E1,2.7745E1,1.2568744E0,1.3114145E2,1.1525623E1,1.210157E1,1.7825679E2,1.4426251E1,1.4386494E1,1.0918827E2,1.537578E2,-6.0029163E0,6.8325E0,1.727739E2,1.2371645E1,8.432421E1,4.2000003E0,3.0652896E2,1.4524167E1,9.83268E0,1.9586117E1,8.942214E0,-1.7583327E-1,4.7315063E0,3.5124996E-1,-5.017193E-1,6.2592897E0,2.9779527E0,-1.4422469E0,1.1246812E1,1.3575E0,2.4529753E2,4.45767E1,-1.1938442E0,1.4190833E1,3.0430117E1,1.4266376E0,2.7661497E1,4.3042004E-1,1.0086427E1,4E-1,3.2755396E-1,1.2268269E0,1.2530326E2,9.509835E-1,-1.1279098E0,3.7943336E-1,-4.251976E0,-1.0722042E0,1.2166336E0,-3.6424807E-1,7.938419E-1,-2.128929E0,1.7373024E0,-6.383727E-1,2.5759513E0,-1.845714E0,-4.6457458E-1,4.966246E-2,1.4682646E0,5.0319896E0,-7.461221E-1,9.203698E-1,-6.7780256E-1,-5.7675865E-2,1.7027398E0,2.8140208E-1,-1.4916639E-1,-3.0132007E-2,1.0690227E-1,-6.6263986E-1],"split_indices":[0,2,1,2,0,0,0,3,2,2,3,0,2,3,3,0,0,3,2,3,1,3,0,2,2,2,0,0,0,0,0,0,0,3,0,3,3,0,0,2,0,2,0,2,1,0,0,3,0,0,0,0,0,0,0,0,0,0,0,0,0,0,0,0,0,0,0,0,0,0,0,0,0,0,0],"split_type":[0,0,0,0,0,0,0,0,0,0,0,0,0,0,0,0,0,0,0,0,0,0,0,0,0,0,0,0,0,0,0,0,0,0,0,0,0,0,0,0,0,0,0,0,0,0,0,0,0,0,0,0,0,0,0,0,0,0,0,0,0,0,0,0,0,0,0,0,0,0,0,0,0,0,0],"sum_hessian":[1.798E3,1.109E3,6.89E2,9.9E1,1.01E3,6.88E2,1E0,9.1E1,8E0,9.88E2,2.2E1,6.79E2,9E0,4E1,5.1E1,4E0,4E0,1.8E1,9.7E2,6E0,1.6E1,1.4E1,6.65E2,3E0,6E0,3.6E1,4E0,5E0,4.6E1,1E0,3E0,2E0,2E0,8E0,1E1,6E0,9.64E2,1E0,5E0,1.3E1,3E0,1.3E1,1E0,7E0,6.58E2,1E0,2E0,4E0,2E0,8E0,2.8E1,2E0,2E0,1.1E1,3.5E1,1E0,7E0,2E0,8E0,5E0,1E0,5.5E1,9.09E2,3E0,2E0,1E1,3E0,1.2E1,1E0,1E0,6E0,3.9E2,2.68E2,1E0,3E0],"tree_param":{"num_deleted":"0","num_feature":"4","num_nodes":"75","size_leaf_vector":"1"}},{"base_weights":[3.1381227E-2,8.0595456E-2,-1.133336E0,1.136567E0,1.0842491E-2,-2.5020776E0,-3.6832318E-1,3.0301353E-1,6.6521E0,3.9719012E-1,-1.1188112E-1,-3.5827432E0,-1.1458161E0,4.9677765E-1,-1.5042517E0,2.7971146E0,1.05761744E-1,-3.4585679E0,8.625425E0,9.326816E-2,2.292161E0,-3.9765728E0,-6.4155355E-2,-1.1503601E0,-3.892277E0,-1.7095765E0,9.811592E-2,-3.0054322E-1,7.241299E0,7.5591344E-1,-2.0604432E0,-6.5175943E0,5.5615234E-1,-2.1797514E0,6.2339574E-1,1.4135733E0,1.0872313E1,-5.356469E0,1.7457181E-1,5.835416E0,1.6013949E0,-2.9746237E0,-2.8441262E0,4.361968E0,-7.868611E-2,-6.360719E-1,1.1840988E-1,-1.2250133E0,-2.6852596E-1,-7.43626E-1,-1.1357042E0,6.476542E-1,-3.1500557E-1,-7.2538227E-1,1.6288571E0,3.4742935E0,-2.1570855E-1,-2.7992222E0,5.6798255E-1,-3.313932E0,-4.4746858E-1,1.0849919E0,-1.7472896E-1,-6.40852E-2,6.081528E-1,4.1790895E0,3.387294E-2,-1.5577169E-1,-1.9307902E0,8.6989105E-2,-9.720339E-1,-1.2508817E0,8.1600255E-1,-2.2566438E0,-5.716957E-1,2.2565129E0,2.4044524E-1,-2.2592154E-1,8.655346E-4,-4.6728027E-1,2.0935144E-1,5.6687452E-2,3.0356133E-1,1.2431526E-1,-3.0050552E-1,-3.7881413E-1,8.0022854E-1,-8.8109535E-1,-1.3058296E-1,3.7086448E-1,-3.1574205E-1],"categories":[],"categories_nodes":[],"categories_segments":[],"categories_sizes":[],"default_left":[0,0,0,0,0,0,0,0,0,0,0,0,0,0,0,0,0,0,0,0,0,0,0,0,0,0,0,0,0,0,0,0,0,0,0,0,0,0,0,0,0,0,0,0,0,0,0,0,0,0,0,0,0,0,0,0,0,0,0,0,0,0,0,0,0,0,0,0,0,0,0,0,0,0,0,0,0,0,0,0,0,0,0,0,0,0,0,0,0,0,0],"id":12,"left_children":[1,3,5,7,9,11,13,15,17,19,21,23,25,27,29,-1,31,33,35,37,39,41,43,45,47,49,51,53,55,-1,57,59,61,-1,-1,63,65,67,69,-1,71,-1,73,75,77,-1,-1,-1,-1,-1,79,81,-1,83,85,-1,-1,87,89,-1,-1,-1,-1,-1,-1,-1,-1,-1,-1,-1,-1,-1,-1,-1,-1,-1,-1,-1,-1,-1,-1,-1,-1,-1,-1,-1,-1,-1,-1,-1,-1],"loss_changes":[1.0321121E2,1.2719358E2,7.551708E1,4.8991602E2,7.69025E1,3.4002136E1,4.7916527E1,1.6627277E2,3.0915448E2,2.2497221E2,2.2679713E2,6.063141E0,9.284372E0,1.5274767E2,5.21917E1,0E0,2.8105283E2,7.833577E1,1.7908185E2,1.5069733E2,6.089133E2,7.268059E1,7.861448E1,5.332424E0,3.2181854E0,1.1575546E0,3.834768E0,2.2493343E1,1.11962814E2,0E0,3.8484596E1,1.2009631E2,3.087527E2,0E0,0E0,4.4268336E0,2.945459E2,2.2767075E1,1.3254448E2,0E0,3.5348383E2,0E0,4.7128204E1,3.8972305E1,6.6784874E1,0E0,0E0,0E0,0E0,0E0,6.50191E0,4.7705793E-1,0E0,7.343336E0,1.8383707E1,0E0,0E0,3.6065292E0,6.715289E0,0E0,0E0,0E0,0E0,0E0,0E0,0E0,0E0,0E0,0E0,0E0,0E0,0E0,0E0,0E0,0E0,0E0,0E0,0E0,0E0,0E0,0E0,0E0,0E0,0E0,0E0,0E0,0E0,0E0,0E0,0E0,0E0],"parents":[2147483647,0,0,1,1,2,2,3,3,4,4,5,5,6,6,7,7,8,8,9,9,10,10,11,11,12,12,13,13,14,14,16,16,17,17,18,18,19,19,20,20,21,21,22,22,23,23,24,24,25,25,26,26,27,27,28,28,30,30,31,31,32,32,35,35,36,36,37,37,38,38,40,40,42,42,43,43,44,44,50,50,51,51,53,53,54,54,57,57,58,58],"right_children":[2,4,6,8,10,12,14,16,18,20,22,24,26,28,30,-1,32,34,36,38,40,42,44,46,48,50,52,54,56,-1,58,60,62,-1,-1,64,66,68,70,-1,72,-1,74,76,78,-1,-1,-1,-1,-1,80,82,-1,84,86,-1,-1,88,90,-1,-1,-1,-1,-1,-1,-1,-1,-1,-1,-1,-1,-1,-1,-1,-1,-1,-1,-1,-1,-1,-1,-1,-1,-1,-1,-1,-1,-1,-1,-1,-1],"split_conditions":[3.3191425E2,3.5124996E-1,1.4587776E1,1.616667E-1,1.5408671E1,1.2272084E1,1.9734436E1,8.39657E0,8.942214E0,1.481259E1,1.5509274E1,1.0233123E1,1E-1,1.8806337E1,3.3812643E2,2.7971146E0,9.422101E0,8.274206E1,5.3965683E1,4.679167E-1,8.8875E-1,6.5016884E1,4.679167E-1,-1.1758333E0,3.5379968E2,3.3548706E2,4.2999997E0,1.8514643E1,7.4595838E0,7.5591344E-1,1.3847083E1,1.1980086E2,1.3339445E1,-2.1797514E0,6.2339574E-1,2.8041664E-1,2.7334787E2,1.1792404E1,1.4637663E1,5.835416E0,2.7387497E0,-2.9746237E0,9.804168E-1,1.7643673E1,3.6324997E0,-6.360719E-1,1.1840988E-1,-1.2250133E0,-2.6852596E-1,-7.43626E-1,1.3441071E1,1.4940835E1,-3.1500557E-1,2.0533333E0,3.3812643E2,3.4742935E0,-2.1570855E-1,2.6496098E1,1.9084581E1,-3.313932E0,-4.4746858E-1,1.0849919E0,-1.7472896E-1,-6.40852E-2,6.081528E-1,4.1790895E0,3.387294E-2,-1.5577169E-1,-1.9307902E0,8.6989105E-2,-9.720339E-1,-1.2508817E0,8.1600255E-1,-2.2566438E0,-5.716957E-1,2.2565129E0,2.4044524E-1,-2.2592154E-1,8.655346E-4,-4.6728027E-1,2.0935144E-1,5.6687452E-2,3.0356133E-1,1.2431526E-1,-3.0050552E-1,-3.7881413E-1,8.0022854E-1,-8.8109535E-1,-1.3058296E-1,3.7086448E-1,-3.1574205E-1],"split_indices":[3,0,2,0,2,0,2,2,2,2,2,2,1,2,3,0,2,3,3,0,0,3,0,0,3,3,1,2,0,0,0,3,2,0,0,0,3,2,2,0,0,0,0,2,0,0,0,0,0,0,2,0,0,0,3,0,0,2,0,0,0,0,0,0,0,0,0,0,0,0,0,0,0,0,0,0,0,0,0,0,0,0,0,0,0,0,0,0,0,0,0],"split_type":[0,0,0,0,0,0,0,0,0,0,0,0,0,0,0,0,0,0,0,0,0,0,0,0,0,0,0,0,0,0,0,0,0,0,0,0,0,0,0,0,0,0,0,0,0,0,0,0,0,0,0,0,0,0,0,0,0,0,0,0,0,0,0,0,0,0,0,0,0,0,0,0,0,0,0,0,0,0,0,0,0,0,0,0,0,0,0,0,0,0,0],"sum_hessian":[1.798E3,1.726E3,7.2E1,1.06E2,1.62E3,2.5E1,4.7E1,9.3E1,1.3E1,3.9E2,1.23E3,1.3E1,1.2E1,2.7E1,2E1,1E0,9.2E1,2E0,1.1E1,3.37E2,5.3E1,1.4E1,1.216E3,2E0,1.1E1,8E0,4E0,2.5E1,2E0,2E0,1.8E1,5E0,8.7E1,1E0,1E0,3E0,8E0,4E0,3.33E2,1E0,5.2E1,1E0,1.3E1,3E0,1.213E3,1E0,1E0,1E1,1E0,2E0,6E0,3E0,1E0,2.1E1,4E0,1E0,1E0,1.4E1,4E0,2E0,3E0,2.3E1,6.4E1,1E0,2E0,6E0,2E0,1E0,3E0,3.23E2,1E1,8E0,4.4E1,1E0,1.2E1,1E0,2E0,1.3E2,1.083E3,5E0,1E0,2E0,1E0,4E0,1.7E1,1E0,3E0,1.3E1,1E0,3E0,1E0],"tree_param":{"num_deleted":"0","num_feature":"4","num_nodes":"91","size_leaf_vector":"1"}},{"base_weights":[2.3289809E-2,3.4403652E-1,-1.3630238E-1,-3.2767272E-1,8.868584E-1,-3.1465495E0,-9.817948E-2,2.863104E0,-4.368624E-1,3.3935792E0,5.5017245E-1,-4.2497625E0,9.4972634E-1,5.4761324E0,-1.1691287E-1,-2.7179222E0,6.106604E0,-1.8589052E0,-3.2266593E-1,3.1343505E-1,6.61934E0,1.4160144E0,-3.4334916E-1,-1.7065016E0,-1.8631299E0,-4.0795985E-1,6.518638E-1,2.3775473E0,2.0180714E0,-5.356084E-1,5.92297E-2,-1.2578872E0,2.560776E-1,3.7987437E0,-3.369522E-1,-1.0612519E0,3.576978E-1,9.476284E0,-1.1498271E0,-4.219519E0,8.142707E0,7.080348E-1,4.8992724E0,-4.1406517E0,2.9734445E-1,-7.204615E-1,1.2433663E-1,-9.419246E-2,1.0023247E0,-1.2176023E0,2.1452543E-1,4.8760974E-1,-3.5716608E-1,2.6424888E-1,-5.985446E-1,8.195495E-1,-4.154008E-1,-1.07029386E-1,7.4086535E-1,-2.4047299E-1,4.504801E0,-1.0476402E0,1.8321177E0,-1.6338788E-1,-1.7353959E0,3.613772E0,2.5375935E-1,7.234697E-1,-1.266076E-1,2.276543E0,-2.1740963E-1,-3.4535697E0,-3.3529308E-1,9.589279E-1,-1.6019966E-1,7.0110306E-2,-5.5145603E-1,1.7000461E0,-4.9926743E-2,1.045389E0,3.8676012E-2,-4.51892E-1,-2.8127346E-2],"categories":[],"categories_nodes":[],"categories_segments":[],"categories_sizes":[],"default_left":[0,0,0,0,0,0,0,0,0,0,0,0,0,0,0,0,0,0,0,0,0,0,0,0,0,0,0,0,0,0,0,0,0,0,0,0,0,0,0,0,0,0,0,0,0,0,0,0,0,0,0,0,0,0,0,0,0,0,0,0,0,0,0,0,0,0,0,0,0,0,0,0,0,0,0,0,0,0,0,0,0,0,0],"id":13,"left_children":[1,3,5,7,9,11,13,15,17,19,21,23,25,27,29,31,33,-1,35,37,39,41,43,-1,45,-1,-1,-1,47,49,51,-1,-1,-1,53,55,57,59,61,63,65,67,69,71,73,-1,-1,-1,-1,75,77,79,81,-1,-1,-1,-1,-1,-1,-1,-1,-1,-1,-1,-1,-1,-1,-1,-1,-1,-1,-1,-1,-1,-1,-1,-1,-1,-1,-1,-1,-1,-1],"loss_changes":[9.213531E1,2.1833241E2,1.3763184E2,9.462196E1,2.7748953E2,7.182208E1,1.2469803E2,1.7951581E2,1.6900613E2,3.8542178E2,2.271652E2,3.0602112E1,1.4254764E1,1.7881973E1,8.742561E1,2.4651512E1,2.5772546E2,0E0,1.2902144E2,2.9245673E2,3.48078E2,3.6397644E2,3.540028E2,0E0,8.352953E0,0E0,0E0,0E0,1.0304982E1,1.7982816E2,1.4911783E2,0E0,0E0,0E0,9.834671E0,1.5467284E2,2.0306558E2,1.8284586E2,3.442859E2,1.4104626E1,4.739884E2,2.4165425E2,3.835995E2,4.5508386E2,3.0297342E2,0E0,0E0,0E0,0E0,1.661503E2,3.498858E2,4.4245096E2,1.2820064E2,0E0,0E0,0E0,0E0,0E0,0E0,0E0,0E0,0E0,0E0,0E0,0E0,0E0,0E0,0E0,0E0,0E0,0E0,0E0,0E0,0E0,0E0,0E0,0E0,0E0,0E0,0E0,0E0,0E0,0E0],"parents":[2147483647,0,0,1,1,2,2,3,3,4,4,5,5,6,6,7,7,8,8,9,9,10,10,11,11,12,12,13,13,14,14,15,15,16,16,18,18,19,19,20,20,21,21,22,22,24,24,28,28,29,29,30,30,34,34,35,35,36,36,37,37,38,38,39,39,40,40,41,41,42,42,43,43,44,44,49,49,50,50,51,51,52,52],"right_children":[2,4,6,8,10,12,14,16,18,20,22,24,26,28,30,32,34,-1,36,38,40,42,44,-1,46,-1,-1,-1,48,50,52,-1,-1,-1,54,56,58,60,62,64,66,68,70,72,74,-1,-1,-1,-1,76,78,80,82,-1,-1,-1,-1,-1,-1,-1,-1,-1,-1,-1,-1,-1,-1,-1,-1,-1,-1,-1,-1,-1,-1,-1,-1,-1,-1,-1,-1,-1,-1],"split_conditions":[1.6967767E2,8.8055374E1,1.727739E2,-3.9050007E0,1.1620809E1,8.000001E-1,8.39657E0,-6.88625E0,-1.8695832E0,1.3387485E2,1.2320935E2,1.55843E1,6.4387493E0,-2.9070835E0,2.3003151E2,7E-1,1.0464798E1,-1.8589052E0,1E-1,9.107165E1,8.39657E0,1.17005424E2,1.3082655E2,-1.7065016E0,3E-1,-4.0795985E-1,6.518638E-1,2.3775473E0,1.8197084E1,6E-1,5E-1,-1.2578872E0,2.560776E-1,3.7987437E0,-6.0029163E0,9.408335E-1,7.0702324E1,-3.8625E-1,1E-1,3.3741667E0,1.1434583E1,9.465834E0,1.787718E1,6.7845836E0,1.3864043E2,-7.204615E-1,1.2433663E-1,-9.419246E-2,1.0023247E0,1.4480773E1,1.8034169E2,2.421512E2,2.469011E2,2.6424888E-1,-5.985446E-1,8.195495E-1,-4.154008E-1,-1.07029386E-1,7.4086535E-1,-2.4047299E-1,4.504801E0,-1.0476402E0,1.8321177E0,-1.6338788E-1,-1.7353959E0,3.613772E0,2.5375935E-1,7.234697E-1,-1.266076E-1,2.276543E0,-2.1740963E-1,-3.4535697E0,-3.3529308E-1,9.589279E-1,-1.6019966E-1,7.0110306E-2,-5.5145603E-1,1.7000461E0,-4.9926743E-2,1.045389E0,3.8676012E-2,-4.51892E-1,-2.8127346E-2],"split_indices":[3,3,3,0,2,1,2,0,0,3,3,2,0,0,3,1,2,0,1,3,2,3,3,0,1,0,0,0,0,1,1,0,0,0,0,0,3,0,1,0,0,0,2,0,3,0,0,0,0,2,3,3,3,0,0,0,0,0,0,0,0,0,0,0,0,0,0,0,0,0,0,0,0,0,0,0,0,0,0,0,0,0,0],"split_type":[0,0,0,0,0,0,0,0,0,0,0,0,0,0,0,0,0,0,0,0,0,0,0,0,0,0,0,0,0,0,0,0,0,0,0,0,0,0,0,0,0,0,0,0,0,0,0,0,0,0,0,0,0,0,0,0,0,0,0,0,0,0,0,0,0,0,0,0,0,0,0,0,0,0,0,0,0,0,0,0,0,0,0],"sum_hessian":[1.798E3,5.97E2,1.201E3,2.67E2,3.3E2,1.4E1,1.187E3,8E0,2.59E2,3.8E1,2.92E2,1.1E1,3E0,3E0,1.184E3,3E0,5E0,4E0,2.55E2,2E1,1.8E1,1.48E2,1.44E2,6E0,5E0,1E0,2E0,1E0,2E0,3.5E2,8.34E2,2E0,1E0,2E0,3E0,1.22E2,1.33E2,2E0,1.8E1,2E0,1.6E1,1.24E2,2.4E1,2E1,1.24E2,4E0,1E0,1E0,1E0,1.83E2,1.67E2,4.11E2,4.23E2,2E0,1E0,9E0,1.13E2,1E2,3.3E1,1E0,1E0,1.4E1,4E0,1E0,1E0,1E1,6E0,4.9E1,7.5E1,1.6E1,8E0,5E0,1.5E1,2.7E1,9.7E1,5.5E1,1.28E2,1E1,1.57E2,4.3E1,3.68E2,7.8E1,3.45E2],"tree_param":{"num_deleted":"0","num_feature":"4","num_nodes":"83","size_leaf_vector":"1"}},{"base_weights":[2.259806E-2,1.6706103E-1,-2.4312185E-1,2.5750777E-1,-8.1035507E-1,-2.5480062E-1,1.0724325E0,2.1368887E-1,4.095765E0,-3.145918E0,-6.258465E-1,-2.8142583E-1,1.4320928E0,1.0951616E-1,9.428573E-1,-1.0736875E-1,6.210753E0,-1.137711E0,-3.059575E-1,1.7006203E0,-8.349847E-1,6.087409E-2,-4.1710362E-1,2.7539515E0,4.7216028E-1,2.086847E-1,-3.4728656E0,2.6456149E0,1.3171171E-3,5.930336E-1,-6.46718E-1,1.1418637E0,7.710072E0,4.6816716E0,-1.0243448E0,-2.705373E0,-5.245895E-1,-8.0875024E-2,4.137828E0,-1.7074446E-1,-8.2521945E-1,2.2730857E-1,9.500416E-1,-8.9551E-1,7.782672E-1,5.0453942E-2,1.6090503E0,-1.6012946E0,-1.8427935E-1,1.941786E-1,2.0596852E0,-5.943042E-1,1.8961166E-1,9.4726115E-1,-4.3342248E-1,9.426767E-1,3.369141E0,2.7526534E-1,1.6891584E0,1.4527936E-1,-6.574518E-1,-1.3045049E-1,-8.616766E-1,8.219226E-2,-3.2803217E-1,-1.10087976E-1,4.4390813E-1,5.188102E-1,1.472915E0,-7.326763E-2,7.0744103E-1,-3.8171414E-1,2.0594288E-1,5.0439645E-2,-4.9819466E-1],"categories":[],"categories_nodes":[],"categories_segments":[],"categories_sizes":[],"default_left":[0,0,0,0,0,0,0,0,0,0,0,0,0,0,0,0,0,0,0,0,0,0,0,0,0,0,0,0,0,0,0,0,0,0,0,0,0,0,0,0,0,0,0,0,0,0,0,0,0,0,0,0,0,0,0,0,0,0,0,0,0,0,0,0,0,0,0,0,0,0,0,0,0,0,0],"id":14,"left_children":[1,3,5,7,9,11,-1,13,15,17,19,21,23,25,27,29,31,-1,-1,33,35,37,39,41,43,45,47,49,51,-1,-1,53,55,57,59,61,63,65,67,69,71,-1,-1,73,-1,-1,-1,-1,-1,-1,-1,-1,-1,-1,-1,-1,-1,-1,-1,-1,-1,-1,-1,-1,-1,-1,-1,-1,-1,-1,-1,-1,-1,-1,-1],"loss_changes":[6.909827E1,1.0328786E2,2.9179893E1,1.7874985E2,4.0693336E1,2.883353E1,0E0,8.018588E1,1.0734178E2,5.75309E0,4.666944E1,2.9005505E1,1.1388645E1,3.296951E2,2.1162086E2,2.5606792E1,5.199521E1,0E0,0E0,6.978174E1,4.850892E1,1.0320166E2,4.480184E1,8.9717674E-1,2.2639137E1,1.8743137E2,1.2998804E2,3.9190967E2,1.087778E2,0E0,0E0,2.0203077E1,6.1194183E1,9.120148E0,9.865218E0,3.2979965E0,3.4369366E1,7.777972E1,2.6636734E0,5.2606815E1,1.1443662E2,0E0,0E0,4.3483777E0,0E0,0E0,0E0,0E0,0E0,0E0,0E0,0E0,0E0,0E0,0E0,0E0,0E0,0E0,0E0,0E0,0E0,0E0,0E0,0E0,0E0,0E0,0E0,0E0,0E0,0E0,0E0,0E0,0E0,0E0,0E0],"parents":[2147483647,0,0,1,1,2,2,3,3,4,4,5,5,7,7,8,8,9,9,10,10,11,11,12,12,13,13,14,14,15,15,16,16,19,19,20,20,21,21,22,22,23,23,24,24,25,25,26,26,27,27,28,28,31,31,32,32,33,33,34,34,35,35,36,36,37,37,38,38,39,39,40,40,43,43],"right_children":[2,4,6,8,10,12,-1,14,16,18,20,22,24,26,28,30,32,-1,-1,34,36,38,40,42,44,46,48,50,52,-1,-1,54,56,58,60,62,64,66,68,70,72,-1,-1,74,-1,-1,-1,-1,-1,-1,-1,-1,-1,-1,-1,-1,-1,-1,-1,-1,-1,-1,-1,-1,-1,-1,-1,-1,-1,-1,-1,-1,-1,-1,-1],"split_conditions":[1.5149169E1,3.0469528E2,4.89E1,3.011079E2,3.0652896E2,2.7745E1,1.0724325E0,1.2699169E1,2.7825E0,1.9930477E1,1.0636766E1,1.1980086E2,1.4386494E1,1.2272084E1,1.3561667E1,-1.7583327E-1,1E-1,-1.137711E0,-3.059575E-1,3.1464304E2,1.3684735E1,1.17005424E2,1.9799166E1,9.83268E0,1.9586117E1,1.2090835E1,1.9110542E1,2.3421342E2,9.745269E1,5.930336E-1,-6.46718E-1,5.0679164E0,2.1518847E1,8.759178E0,3.4185992E2,3.13353E2,5E-1,2.2505037E1,1.3849477E1,1.9715834E1,1.5E0,2.2730857E-1,9.500416E-1,1.4689532E2,7.782672E-1,5.0453942E-2,1.6090503E0,-1.6012946E0,-1.8427935E-1,1.941786E-1,2.0596852E0,-5.943042E-1,1.8961166E-1,9.4726115E-1,-4.3342248E-1,9.426767E-1,3.369141E0,2.7526534E-1,1.6891584E0,1.4527936E-1,-6.574518E-1,-1.3045049E-1,-8.616766E-1,8.219226E-2,-3.2803217E-1,-1.10087976E-1,4.4390813E-1,5.188102E-1,1.472915E0,-7.326763E-2,7.0744103E-1,-3.8171414E-1,2.0594288E-1,5.0439645E-2,-4.9819466E-1],"split_indices":[0,3,1,3,3,0,0,0,0,2,2,3,2,0,0,0,1,0,0,3,2,3,0,2,2,0,2,3,3,0,0,0,2,2,3,3,1,2,2,0,1,0,0,3,0,0,0,0,0,0,0,0,0,0,0,0,0,0,0,0,0,0,0,0,0,0,0,0,0,0,0,0,0,0,0],"split_type":[0,0,0,0,0,0,0,0,0,0,0,0,0,0,0,0,0,0,0,0,0,0,0,0,0,0,0,0,0,0,0,0,0,0,0,0,0,0,0,0,0,0,0,0,0,0,0,0,0,0,0,0,0,0,0,0,0,0,0,0,0,0,0,0,0,0,0,0,0,0,0,0,0,0,0],"sum_hessian":[1.798E3,1.165E3,6.33E2,1.067E3,9.8E1,6.32E2,1E0,1.056E3,1.1E1,6E0,9.2E1,6.23E2,9E0,9.25E2,1.31E2,4E0,7E0,4E0,2E0,7E0,8.5E1,1.77E2,4.46E2,3E0,6E0,9.01E2,2.4E1,4.6E1,8.5E1,2E0,2E0,2E0,5E0,3E0,4E0,1.1E1,7.4E1,1.72E2,5E0,2.79E2,1.67E2,1E0,2E0,4E0,2E0,8.95E2,6E0,1.4E1,1E1,3.2E1,1.4E1,2E1,6.5E1,1E0,1E0,3E0,2E0,1E0,2E0,2E0,2E0,1E0,1E1,3.1E1,4.3E1,1.46E2,2.6E1,2E0,3E0,2.72E2,7E0,1.29E2,3.8E1,2E0,2E0],"tree_param":{"num_deleted":"0","num_feature":"4","num_nodes":"75","size_leaf_vector":"1"}},{"base_weights":[2.1727523E-2,3.1443113E-1,-8.654926E-2,2.0716076E-1,6.697942E0,-1.9371581E0,-1.33342445E-2,-2.8604463E-1,8.7342316E-1,5.399293E0,-3.6814075E0,-1.2894213E-1,-4.2326627E0,1.6710986E0,-1.0301009E-1,-2.2909024E0,-2.04523E-1,-2.5234628E-1,2.0239835E0,-1.8939105E0,1.7735608E-1,-2.6461878E0,2.3968997E0,-7.38572E0,-1.9033645E0,2.8915682E0,-2.171033E0,4.755844E0,-1.1913387E-1,-1.277934E0,3.8157466E-1,-1.8579862E0,3.3480003E-1,3.291175E0,-9.43583E-1,-1.9491635E-1,2.747266E-1,-2.022422E0,-5.441623E-1,-1.8335083E0,3.441206E0,1.2127568E0,-9.319566E0,3.0009475E-1,-2.470671E0,8.99292E-1,4.929385E0,-3.8011692E0,2.1755004E0,2.0133471E0,1.8670211E0,-1.5518984E0,-6.1918702E-2,-3.2397907E-2,-1.1661607E0,2.8138545E0,-1.2483908E-2,-9.2372227E-1,4.738853E-1,2.0909164E0,-3.7269883E-2,3.5895703E0,5.517149E-1,-1.4181533E0,-6.239095E-2,9.5673835E-1,-5.1843894E-1,1.5444915E0,-1.9837008E-1,-3.478611E0,-1.243476E0,-9.448179E-1,-9.776373E-2,1.6145419E0,-2.1436577E-1,2.1513803E0,1.1883233E-1,-1.3130268E0,-1.8464723E-1,1.3198538E0,-1.008082E0,-6.907347E-2,9.09233E-1,1.5759887E0,-5.9418553E-1,8.953676E-1,-2.8963251E-2],"categories":[],"categories_nodes":[],"categories_segments":[],"categories_sizes":[],"default_left":[0,0,0,0,0,0,0,0,0,0,0,0,0,0,0,0,0,0,0,0,0,0,0,0,0,0,0,0,0,0,0,0,0,0,0,0,0,0,0,0,0,0,0,0,0,0,0,0,0,0,0,0,0,0,0,0,0,0,0,0,0,0,0,0,0,0,0,0,0,0,0,0,0,0,0,0,0,0,0,0,0,0,0,0,0,0,0],"id":15,"left_children":[1,3,5,7,9,11,13,15,17,-1,19,21,23,25,27,-1,29,31,33,-1,35,37,39,41,43,45,47,49,51,53,55,57,59,61,63,-1,-1,-1,65,-1,67,-1,69,-1,71,73,75,77,79,-1,81,83,85,-1,-1,-1,-1,-1,-1,-1,-1,-1,-1,-1,-1,-1,-1,-1,-1,-1,-1,-1,-1,-1,-1,-1,-1,-1,-1,-1,-1,-1,-1,-1,-1,-1,-1],"loss_changes":[5.704293E1,3.314066E2,1.7801112E2,1.5765126E2,1.0045249E3,2.0699261E2,1.912541E2,1.6381966E2,2.6474493E2,0E0,5.18938E1,1.9072942E2,1.4751932E2,3.0638678E2,9.473496E1,0E0,1.7286751E2,9.8667595E1,3.829134E2,0E0,2.427125E0,1.254554E2,1.5431528E2,2.3657864E2,2.5533318E1,1.9450183E2,1.21636505E2,1.0064339E1,9.8192955E1,2.956911E2,6.7818176E2,1.2239702E2,2.353807E2,8.7229865E2,8.529801E1,0E0,0E0,0E0,5.413226E1,0E0,1.0145006E2,0E0,4.6149902E1,0E0,1.6442284E1,1.9193167E2,2.4107318E2,1.9309753E1,7.634169E1,0E0,8.019935E0,1.4461084E2,1.22018654E2,0E0,0E0,0E0,0E0,0E0,0E0,0E0,0E0,0E0,0E0,0E0,0E0,0E0,0E0,0E0,0E0,0E0,0E0,0E0,0E0,0E0,0E0,0E0,0E0,0E0,0E0,0E0,0E0,0E0,0E0,0E0,0E0,0E0,0E0],"parents":[2147483647,0,0,1,1,2,2,3,3,4,4,5,5,6,6,7,7,8,8,10,10,11,11,12,12,13,13,14,14,16,16,17,17,18,18,20,20,21,21,22,22,23,23,24,24,25,25,26,26,27,27,28,28,29,29,30,30,31,31,32,32,33,33,34,34,38,38,40,40,42,42,44,44,45,45,46,46,47,47,48,48,50,50,51,51,52,52],"right_children":[2,4,6,8,10,12,14,16,18,-1,20,22,24,26,28,-1,30,32,34,-1,36,38,40,42,44,46,48,50,52,54,56,58,60,62,64,-1,-1,-1,66,-1,68,-1,70,-1,72,74,76,78,80,-1,82,84,86,-1,-1,-1,-1,-1,-1,-1,-1,-1,-1,-1,-1,-1,-1,-1,-1,-1,-1,-1,-1,-1,-1,-1,-1,-1,-1,-1,-1,-1,-1,-1,-1,-1,-1],"split_conditions":[1.3864043E2,1.3652066E2,1.5233684E2,1E-1,1.2514855E1,1.4689532E2,1.6967767E2,-6.88625E0,7.0702324E1,5.399293E0,1.9296133E1,1.4326183E2,1.1130417E1,1.3000002E0,8.39657E0,-2.2909024E0,1.4587776E1,3.690833E0,3.1E0,-1.8939105E0,6.4387493E0,1.123875E1,1.0538843E1,-3.9050007E0,9.83268E0,1.5941944E1,4.6000004E0,-2.9070835E0,1.0538843E1,1.3237039E1,1.5192682E1,1.9000002E0,4.9824996E0,1.3684735E1,7.3458314E-1,-1.9491635E-1,2.747266E-1,-2.022422E0,1.4934577E1,-1.8335083E0,1.8947083E1,1.2127568E0,1.481259E1,3.0009475E-1,3.1999998E0,1.0805999E1,2.0598795E1,1.1434583E1,6.8999996E0,2.0133471E0,1.8197084E1,-6.0029163E0,1.1119281E1,-3.2397907E-2,-1.1661607E0,2.8138545E0,-1.2483908E-2,-9.2372227E-1,4.738853E-1,2.0909164E0,-3.7269883E-2,3.5895703E0,5.517149E-1,-1.4181533E0,-6.239095E-2,9.5673835E-1,-5.1843894E-1,1.5444915E0,-1.9837008E-1,-3.478611E0,-1.243476E0,-9.448179E-1,-9.776373E-2,1.6145419E0,-2.1436577E-1,2.1513803E0,1.1883233E-1,-1.3130268E0,-1.8464723E-1,1.3198538E0,-1.008082E0,-6.907347E-2,9.09233E-1,1.5759887E0,-5.9418553E-1,8.953676E-1,-2.8963251E-2],"split_indices":[3,3,3,1,2,3,3,0,3,0,2,3,0,1,2,0,2,0,1,0,0,0,2,0,2,2,1,0,2,2,2,1,0,2,0,0,0,0,2,0,2,0,2,0,1,2,2,0,1,0,0,0,2,0,0,0,0,0,0,0,0,0,0,0,0,0,0,0,0,0,0,0,0,0,0,0,0,0,0,0,0,0,0,0,0,0,0],"split_type":[0,0,0,0,0,0,0,0,0,0,0,0,0,0,0,0,0,0,0,0,0,0,0,0,0,0,0,0,0,0,0,0,0,0,0,0,0,0,0,0,0,0,0,0,0,0,0,0,0,0,0,0,0,0,0,0,0,0,0,0,0,0,0,0,0,0,0,0,0,0,0,0,0,0,0,0,0,0,0,0,0,0,0,0,0,0,0],"sum_hessian":[1.798E3,4.85E2,1.313E3,4.78E2,7E0,4.9E1,1.264E3,2.75E2,2.03E2,3E0,4E0,2.8E1,2.1E1,6.3E1,1.201E3,2E0,2.73E2,1.03E2,1E2,2E0,2E0,1.4E1,1.4E1,8E0,1.3E1,4.8E1,1.5E1,3E0,1.198E3,9.6E1,1.77E2,2.7E1,7.6E1,7E1,3E1,1E0,1E0,4E0,1E1,1E0,1.3E1,1E0,7E0,2E0,1.1E1,2.5E1,2.3E1,1.1E1,4E0,1E0,2E0,4.5E1,1.153E3,6.7E1,2.9E1,7E0,1.7E2,2E1,7E0,4E0,7.2E1,9E0,6.1E1,4E0,2.6E1,2E0,8E0,9E0,4E0,4E0,3E0,8E0,3E0,6E0,1.9E1,1.5E1,8E0,9E0,2E0,3E0,1E0,1E0,1E0,2E0,4.3E1,1.2E1,1.141E3],"tree_param":{"num_deleted":"0","num_feature":"4","num_nodes":"87","size_leaf_vector":"1"}},{"base_weights":[1.9669723E-2,2.2197562E-1,-1.09993644E-1,1.1246899E-1,1.6498829E0,-5.5523014E-1,-1.6706284E-2,7.5288963E-1,-7.633565E-2,3.066667E0,-1.5524503E0,-1.0371464E0,4.0974802E-1,2.7789292E0,-8.926036E-2,5.6145795E-2,3.4032001E0,-8.234655E0,5.461202E-2,3.594899E0,1.5296248E0,-2.7295008E0,4.4579353E0,9.2103887E-1,-1.60028E0,5.207097E0,-2.707527E-1,2.0162927E-1,1.4970697E1,-2.0282037E0,-5.5804614E-2,3.7606424E-1,-3.731817E0,-7.6755795E0,4.8643403E0,1.4569969E0,-1.1708038E1,3.8852072E-1,-5.5503273E-1,-1.8161224E0,2.405249E0,-3.248243E0,2.553021E-1,2.6102573E-1,1.7450453E0,2.4156274E-1,2.9919558E0,-3.7484205E0,-1.2319748E0,4.8563632E-1,9.807149E0,2.6060978E-1,-4.1034293E0,-1.4464967E0,2.3767273E0,7.3776245E-1,8.650426E0,5.562768E-1,-5.061364E0,1.7282352E0,-1.3247085E-1,-1.4570546E-1,5.9558964E-1,-2.9727695E0,-1.461937E-1,2.9862106E0,2.9564312E-1,-8.331562E-1,1.4888048E0,-4.012866E0,-5.0506985E-1,2.8668016E-1,-4.2109787E-2,-1.6102916E0,-7.95793E-2,-1.1623248E0,6.6592205E-1,1.5464712E0,-3.7020482E-2,-1.1916835E0,7.4386455E-2,1.3470855E-1,-1.9822598E-2,-9.874032E-1,7.161423E-1,-1.8743258E0,-4.997125E-1,7.5745094E-1,-5.4499155E-1,-1.2735875E0,1.5164056E0,3.7393186E0,2.7531183E-1,-5.969559E-1,3.0122453E-1,-1.4333678E0,-4.834542E-1,2.2966616E0,-8.909738E-1,2.1382318E0,-3.5596043E-1,5.6968135E-1,-2.3768821E-1,-1.1150957E0,3.1025393E0,-2.1673079E-1,-1.6992339E0,1.9361938E0,-3.6703348E-1,-4.7508007E-1,-7.917882E-3],"categories":[],"categories_nodes":[],"categories_segments":[],"categories_sizes":[],"default_left":[0,0,0,0,0,0,0,0,0,0,0,0,0,0,0,0,0,0,0,0,0,0,0,0,0,0,0,0,0,0,0,0,0,0,0,0,0,0,0,0,0,0,0,0,0,0,0,0,0,0,0,0,0,0,0,0,0,0,0,0,0,0,0,0,0,0,0,0,0,0,0,0,0,0,0,0,0,0,0,0,0,0,0,0,0,0,0,0,0,0,0,0,0,0,0,0,0,0,0,0,0,0,0,0,0,0,0,0,0,0,0],"id":16,"left_children":[1,3,5,7,9,11,13,15,17,19,21,23,25,27,29,31,33,35,37,-1,39,41,43,45,47,49,51,53,55,57,59,61,-1,63,65,67,69,71,73,75,77,79,81,-1,-1,83,-1,85,87,89,91,93,95,97,99,101,-1,103,105,107,109,-1,-1,-1,-1,-1,-1,-1,-1,-1,-1,-1,-1,-1,-1,-1,-1,-1,-1,-1,-1,-1,-1,-1,-1,-1,-1,-1,-1,-1,-1,-1,-1,-1,-1,-1,-1,-1,-1,-1,-1,-1,-1,-1,-1,-1,-1,-1,-1,-1,-1],"loss_changes":[4.721518E1,1.0973926E2,4.5554546E1,7.913549E1,2.3161165E2,8.878233E1,1.8442201E2,2.749505E2,5.4101605E2,4.6133762E2,1.2536038E2,1.4151935E2,2.1034422E2,7.1968396E2,5.7360573E1,4.803867E2,5.391537E2,2.863612E2,1.0179492E2,0E0,9.518636E1,2.2506096E1,9.565258E0,1.7596167E2,7.370802E1,1.68989E2,1.17152214E2,7.5134636E1,7.6803156E2,1.2040268E2,1.1949727E2,1.6321472E2,0E0,5.9395447E1,5.4297284E2,5.8313457E1,7.781598E1,9.7008606E1,2.4540994E2,6.6749115E1,1.7445906E2,3.136139E1,2.1644756E-1,0E0,0E0,2.2010048E2,0E0,6.2468506E1,1.9348314E2,1.2953781E2,8.304706E1,8.732892E1,4.0652924E0,1.8913048E2,1.6080922E2,6.834508E0,0E0,4.147852E2,1.4215012E1,5.1005594E2,1.2879993E2,0E0,0E0,0E0,0E0,0E0,0E0,0E0,0E0,0E0,0E0,0E0,0E0,0E0,0E0,0E0,0E0,0E0,0E0,0E0,0E0,0E0,0E0,0E0,0E0,0E0,0E0,0E0,0E0,0E0,0E0,0E0,0E0,0E0,0E0,0E0,0E0,0E0,0E0,0E0,0E0,0E0,0E0,0E0,0E0,0E0,0E0,0E0,0E0,0E0,0E0],"parents":[2147483647,0,0,1,1,2,2,3,3,4,4,5,5,6,6,7,7,8,8,9,9,10,10,11,11,12,12,13,13,14,14,15,15,16,16,17,17,18,18,20,20,21,21,22,22,23,23,24,24,25,25,26,26,27,27,28,28,29,29,30,30,31,31,33,33,34,34,35,35,36,36,37,37,38,38,39,39,40,40,41,41,42,42,45,45,47,47,48,48,49,49,50,50,51,51,52,52,53,53,54,54,55,55,57,57,58,58,59,59,60,60],"right_children":[2,4,6,8,10,12,14,16,18,20,22,24,26,28,30,32,34,36,38,-1,40,42,44,46,48,50,52,54,56,58,60,62,-1,64,66,68,70,72,74,76,78,80,82,-1,-1,84,-1,86,88,90,92,94,96,98,100,102,-1,104,106,108,110,-1,-1,-1,-1,-1,-1,-1,-1,-1,-1,-1,-1,-1,-1,-1,-1,-1,-1,-1,-1,-1,-1,-1,-1,-1,-1,-1,-1,-1,-1,-1,-1,-1,-1,-1,-1,-1,-1,-1,-1,-1,-1,-1,-1,-1,-1,-1,-1,-1,-1],"split_conditions":[8.190834E0,7.674166E0,1.0809585E1,1.2530326E2,2.568125E2,2.469011E2,1.1130417E1,1.0434417E2,1.3082655E2,7.78875E0,2.3999999E0,1.1104552E2,2.4926581E2,2.4858253E1,1.1324166E1,1.0153178E2,1.0636766E1,1.257426E1,5.2720833E0,3.594899E0,3.650153E1,8.161667E0,7.8700004E0,1.0434417E2,1.5233684E2,1.9E0,1.056375E1,3E-1,1.1007501E1,2.2746506E2,1.177625E1,3.5637496E0,-3.731817E0,-1.7583327E-1,1.7414474E1,6.7845836E0,1.7227419E1,2.4827098E2,1.2864649E1,8.12E0,1E-1,3.2540952E2,5E-1,2.6102573E-1,1.7450453E0,1E-1,2.9919558E0,1.8218275E1,1.7538014E2,9.603333E0,8.73875E0,1E-1,2.912414E2,1.1480557E1,6E-1,5E-1,8.650426E0,2.2352782E2,1.2979984E1,2E-1,1.2699169E1,-1.4570546E-1,5.9558964E-1,-2.9727695E0,-1.461937E-1,2.9862106E0,2.9564312E-1,-8.331562E-1,1.4888048E0,-4.012866E0,-5.0506985E-1,2.8668016E-1,-4.2109787E-2,-1.6102916E0,-7.95793E-2,-1.1623248E0,6.6592205E-1,1.5464712E0,-3.7020482E-2,-1.1916835E0,7.4386455E-2,1.3470855E-1,-1.9822598E-2,-9.874032E-1,7.161423E-1,-1.8743258E0,-4.997125E-1,7.5745094E-1,-5.4499155E-1,-1.2735875E0,1.5164056E0,3.7393186E0,2.7531183E-1,-5.969559E-1,3.0122453E-1,-1.4333678E0,-4.834542E-1,2.2966616E0,-8.909738E-1,2.1382318E0,-3.5596043E-1,5.6968135E-1,-2.3768821E-1,-1.1150957E0,3.1025393E0,-2.1673079E-1,-1.6992339E0,1.9361938E0,-3.6703348E-1,-4.7508007E-1,-7.917882E-3],"split_indices":[0,0,0,3,3,3,0,3,3,0,1,3,3,2,0,3,2,2,0,0,3,0,0,3,3,1,0,1,0,3,0,0,0,0,2,0,2,3,2,0,1,3,1,0,0,1,0,2,3,0,0,1,3,2,1,1,0,3,2,1,0,0,0,0,0,0,0,0,0,0,0,0,0,0,0,0,0,0,0,0,0,0,0,0,0,0,0,0,0,0,0,0,0,0,0,0,0,0,0,0,0,0,0,0,0,0,0,0,0,0,0],"split_type":[0,0,0,0,0,0,0,0,0,0,0,0,0,0,0,0,0,0,0,0,0,0,0,0,0,0,0,0,0,0,0,0,0,0,0,0,0,0,0,0,0,0,0,0,0,0,0,0,0,0,0,0,0,0,0,0,0,0,0,0,0,0,0,0,0,0,0,0,0,0,0,0,0,0,0,0,0,0,0,0,0,0,0,0,0,0,0,0,0,0,0,0,0,0,0,0,0,0,0,0,0,0,0,0,0,0,0,0,0,0,0],"sum_hessian":[1.798E3,7.02E2,1.096E3,6.53E2,4.9E1,1.89E2,9.07E2,1.48E2,5.05E2,3.4E1,1.5E1,1.26E2,6.3E1,2.2E1,8.85E2,1.18E2,3E1,7E0,4.98E2,4E0,3E1,1.3E1,2E0,2.8E1,9.8E1,7E0,5.6E1,1.9E1,3E0,1.4E1,8.71E2,1.16E2,2E0,3E0,2.7E1,2E0,5E0,3.22E2,1.76E2,6E0,2.4E1,1.1E1,2E0,1E0,1E0,2.7E1,1E0,1.3E1,8.5E1,4E0,3E0,5E1,6E0,1.1E1,8E0,2E0,1E0,8E0,6E0,3.5E1,8.36E2,7.6E1,4E1,2E0,1E0,1.1E1,1.6E1,1E0,1E0,4E0,1E0,1.55E2,1.67E2,9E0,1.67E2,4E0,2E0,1.1E1,1.3E1,9E0,2E0,1E0,1E0,1E1,1.7E1,5E0,8E0,1.1E1,7.4E1,2E0,2E0,2E0,1E0,1.2E1,3.8E1,4E0,2E0,1E0,1E1,3E0,5E0,1E0,1E0,6E0,2E0,1E0,5E0,1.3E1,2.2E1,5.6E1,7.8E2],"tree_param":{"num_deleted":"0","num_feature":"4","num_nodes":"111","size_leaf_vector":"1"}},{"base_weights":[2.106019E-2,8.8653006E-2,-3.0262715E-1,5.5155132E-2,2.3198452E0,-7.599974E-1,4.338547E-2,1.5219219E-1,-2.611487E-1,7.982767E0,1.3544145E0,-9.984576E-1,1.06105E0,-1.1564621E-1,8.3179665E-1,9.444798E-2,4.7237372E0,-1.3173141E0,6.266472E-2,3.4277968E0,1.6444853E-1,4.6896906E0,-4.0996748E-1,1.07215494E-1,-1.2936602E0,3.721214E0,-9.071697E-1,-2.2232267E-1,1.568468E0,3.4361403E0,1.734823E-1,1.2452673E-1,-2.6706417E0,6.446835E0,-1.1957152E0,2.8656075E0,-1.5725812E0,-1.5421045E0,2.6639527E-1,4.784171E-2,1.9610586E0,-6.960065E-1,4.791317E-1,-7.831178E-1,1.8759693E0,-3.0831066E-1,-1.7507254E0,1.21023275E-1,4.2069464E0,-2.038811E0,1.2999948E0,1.7294064E-1,-8.6233836E-1,1.4947907E0,-1.1881358E-1,-2.5803646E-1,1.6043214E0,-1.2912546E0,2.1550796E0,-1.7545485E-1,6.286622E-2,-1.2800223E0,-1.0902565E-1,3.0015545E0,8.952549E-1,1.8429258E-1,-6.011478E-1,-8.17257E-1,-1.9865124E-1,-9.494804E-1,-8.53164E-2,2.2187634E-1,-1.4074633E-1,-2.2952214E-1,2.5105092E-1,2.5947334E-3,-2.8840005E-1,2.0675536E-1,-2.265401E-2,-1.3901857E-1,-6.681797E-1,1.8391976E0,-6.463938E-2,7.7878165E-1,-1.7943566E-1,-1.0773761E0,-4.030147E-1,1.5115323E0,5.087914E-1,-8.514143E-2,-8.052158E-1,-2.051508E-1,6.5676516E-1,-3.668515E-2,4.8535562E-1,-3.924173E-1,8.2705775E-3,-3.3973092E-1,1.5393686E-1,-1.14678316E-1,-1.4380933E-3,-5.701764E-1,2.578678E-1,1.243275E0,1.2791258E-1],"categories":[],"categories_nodes":[],"categories_segments":[],"categories_sizes":[],"default_left":[0,0,0,0,0,0,0,0,0,0,0,0,0,0,0,0,0,0,0,0,0,0,0,0,0,0,0,0,0,0,0,0,0,0,0,0,0,0,0,0,0,0,0,0,0,0,0,0,0,0,0,0,0,0,0,0,0,0,0,0,0,0,0,0,0,0,0,0,0,0,0,0,0,0,0,0,0,0,0,0,0,0,0,0,0,0,0,0,0,0,0,0,0,0,0,0,0,0,0,0,0,0,0,0,0],"id":17,"left_children":[1,3,5,7,9,11,13,15,17,19,21,23,25,27,29,31,33,35,37,-1,-1,39,41,43,45,47,49,51,53,55,57,59,61,63,65,-1,67,69,71,73,-1,75,77,79,81,83,85,-1,87,89,91,93,95,-1,97,99,-1,101,103,-1,-1,-1,-1,-1,-1,-1,-1,-1,-1,-1,-1,-1,-1,-1,-1,-1,-1,-1,-1,-1,-1,-1,-1,-1,-1,-1,-1,-1,-1,-1,-1,-1,-1,-1,-1,-1,-1,-1,-1,-1,-1,-1,-1,-1,-1],"loss_changes":[3.938704E1,1.1116019E2,4.9250553E1,4.5097355E1,1.0946551E2,5.9248566E1,2.2414253E1,2.9626773E2,1.1807272E2,7.0533676E1,1.19616646E2,3.8980003E1,8.714838E1,2.7117352E1,5.0838196E1,9.273493E1,1.5050568E2,2.3976266E2,8.705004E1,0E0,0E0,5.9707275E1,3.8939173E0,4.2413395E1,4.179492E1,9.583809E0,2.7627628E1,3.5818573E1,5.2437965E1,4.375058E1,7.5345726E1,6.647055E1,4.264006E1,1.05677155E2,7.0817666E0,0E0,8.207103E1,6.033175E1,8.248834E1,2.5643992E0,0E0,2.064921E0,5.180616E-1,7.2789774E0,8.140655E1,2.7644611E1,4.315808E1,0E0,3.9821167E0,7.1650715E0,8.553331E0,3.7736275E1,2.1455093E1,0E0,5.064895E0,9.254451E-2,0E0,2.1292109E1,3.6058556E1,0E0,0E0,0E0,0E0,0E0,0E0,0E0,0E0,0E0,0E0,0E0,0E0,0E0,0E0,0E0,0E0,0E0,0E0,0E0,0E0,0E0,0E0,0E0,0E0,0E0,0E0,0E0,0E0,0E0,0E0,0E0,0E0,0E0,0E0,0E0,0E0,0E0,0E0,0E0,0E0,0E0,0E0,0E0,0E0,0E0,0E0],"parents":[2147483647,0,0,1,1,2,2,3,3,4,4,5,5,6,6,7,7,8,8,9,9,10,10,11,11,12,12,13,13,14,14,15,15,16,16,17,17,18,18,21,21,22,22,23,23,24,24,25,25,26,26,27,27,28,28,29,29,30,30,31,31,32,32,33,33,34,34,36,36,37,37,38,38,39,39,41,41,42,42,43,43,44,44,45,45,46,46,48,48,49,49,50,50,51,51,52,52,54,54,55,55,57,57,58,58],"right_children":[2,4,6,8,10,12,14,16,18,20,22,24,26,28,30,32,34,36,38,-1,-1,40,42,44,46,48,50,52,54,56,58,60,62,64,66,-1,68,70,72,74,-1,76,78,80,82,84,86,-1,88,90,92,94,96,-1,98,100,-1,102,104,-1,-1,-1,-1,-1,-1,-1,-1,-1,-1,-1,-1,-1,-1,-1,-1,-1,-1,-1,-1,-1,-1,-1,-1,-1,-1,-1,-1,-1,-1,-1,-1,-1,-1,-1,-1,-1,-1,-1,-1,-1,-1,-1,-1,-1,-1],"split_conditions":[1.9336668E1,1.9007502E1,2.1134584E1,2.4999998E0,4.976371E1,4E0,2.2007162E1,2.3E0,3.4E0,1.9084581E1,1.3755579E1,1.2738099E1,1.787718E1,3.1839978E2,1.07928E2,2.1999998E0,2.9853966E1,1.1525623E1,1.5856354E1,3.4277968E0,1.6444853E-1,1.1119281E1,1.9247084E1,1.1792404E1,1.498816E2,1.1304229E1,2.2932877E1,1.787718E1,3.2241138E2,2.3340828E1,1.0000001E0,5.967863E1,5.8387504E0,2.3999999E0,4.9075E0,2.8656075E0,8.617918E0,1.3082655E2,1.0380418E1,1.9084581E1,1.9610586E0,1.503835E1,1E-1,3E-1,1.210157E1,1.4587776E1,1.4587776E1,1.21023275E-1,1.5683776E1,1.9715834E1,1.9799166E1,1.6854767E1,1.8227083E2,